90 100
learning 0.056409664 0.07848935 0.009050146 0.105017915 -0.116377726 0.09666732 -0.111484826 0.21013007 -0.2592984 -0.03735862 -0.32006297 0.07520642 0.033795174 0.11345184 -0.07492163 -0.16866544 -0.017983997 -0.19963257 -0.10203814 -0.1251084 -0.18034284 0.14386821 0.15888655 0.22643729 0.22478496 0.06557709 -0.2773471 -0.012146931 -0.19665876 -0.08789847 -0.11540219 0.015028195 -0.015386002 -0.09496125 0.008751297 -0.14640997 0.12737322 -0.22893749 -0.032390296 0.16821085 0.04737755 -0.0075630955 0.37411717 -0.10063272 -0.100008674 0.005427538 -0.037376713 0.17741284 0.2887006 -0.011876859 -0.04331128 -0.14580296 -0.10878636 0.053510625 0.10024204 -0.02722713 0.012229937 0.147338 -0.0905159 0.13439418 0.011442276 0.02399346 -0.13930269 0.042892117 0.046457164 -0.025630819 -0.038626175 -0.1771893 -0.15644163 -0.12769498 0.028803507 -0.15568858 0.049982842 -0.052888744 0.02480822 -0.099995084 0.0825331 -0.10647704 -0.033598155 -0.13647543 0.101885274 -0.04318724 0.0341726 0.1592389 -0.15578271 0.13059568 -0.06760435 -0.2461195 -0.07928692 -0.0013604908 -0.03202238 0.15130855 0.063800074 -0.15179996 0.0773353 -0.021808237 0.11388174 0.07558345 -0.22865516 -0.06612908
the 0.077087514 0.07987275 0.018310344 0.10602198 -0.124584354 0.09647329 -0.11318521 0.24282557 -0.29000524 -0.028776532 -0.3735641 0.08849124 0.034559406 0.12034161 -0.09095623 -0.19474316 -0.03336115 -0.23081654 -0.14021392 -0.16142605 -0.21424086 0.16976143 0.19601607 0.2473996 0.25470194 0.07039581 -0.32854468 -0.018002678 -0.2250896 -0.09462434 -0.13128854 0.026721906 -0.009559405 -0.10735055 0.0075797318 -0.16377662 0.13962565 -0.28564 -0.035734408 0.18124971 0.07351748 -0.01710383 0.4171626 -0.12001867 -0.08356138 -0.0028837326 -0.06542246 0.1799976 0.33209983 -0.03214757 -0.040697843 -0.15861864 -0.106804594 0.05466504 0.107732974 -0.008344509 -0.0031281544 0.18499194 -0.10451016 0.15351252 -0.00016190535 0.025881404 -0.15964226 0.03357906 0.05196721 -0.012384937 -0.0639952 -0.20847394 -0.17200492 -0.15856425 0.009864919 -0.17389408 0.07141549 -0.04299402 0.021744667 -0.11169623 0.108169936 -0.14009182 -0.030155387 -0.16168502 0.1144631 -0.053310763 0.05500777 0.17859982 -0.18834163 0.15155908 -0.065446794 -0.2831401 -0.1066855 -0.017666636 -0.03352771 0.17698203 0.06485178 -0.16959074 0.09734282 -0.024909941 0.12503159 0.07475376 -0.2704548 -0.05560271
data 0.061049256 0.07947992 0.0046892907 0.110613644 -0.11411229 0.08121704 -0.09506455 0.21179453 -0.25153562 -0.022016536 -0.3177832 0.070847526 0.037811052 0.10159787 -0.0702893 -0.17466071 -0.02686156 -0.19689015 -0.10735011 -0.11351857 -0.18153456 0.14497964 0.16523205 0.20728113 0.21717767 0.053578537 -0.26102576 -0.016837656 -0.1937389 -0.09211241 -0.11244201 0.02763534 -0.02221762 -0.0885961 -0.002607291 -0.12823245 0.11752315 -0.22959022 -0.031491593 0.1699863 0.044092093 -0.012393333 0.3527018 -0.09144849 -0.08775253 -0.014732297 -0.03176535 0.16304731 0.28545567 -0.029168254 -0.05422569 -0.13380629 -0.10831042 0.048843414 0.10217831 -0.024864687 0.01280145 0.14167564 -0.10067752 0.12733157 0.013540912 0.008278398 -0.13663983 0.040812958 0.05577057 -0.018021949 -0.046640344 -0.17378283 -0.14048338 -0.1255452 0.01889534 -0.15632446 0.042237796 -0.035646364 0.019381694 -0.09849893 0.082763806 -0.091062255 -0.044188276 -0.14741054 0.086659335 -0.038531434 0.04576499 0.14811713 -0.15546562 0.1354043 -0.06675045 -0.23203139 -0.08024925 -0.007847501 -0.022747826 0.14025576 0.064066984 -0.14457896 0.07286875 -0.018834641 0.12288103 0.06913824 -0.22871524 -0.063167535
is 0.057698086 0.08191589 -0.003845648 0.11765536 -0.11690732 0.08776237 -0.1127963 0.2106828 -0.26178855 -0.047513112 -0.31940532 0.068027355 0.01484531 0.10539175 -0.088950455 -0.17558102 -0.00649852 -0.19583604 -0.10467242 -0.11859567 -0.18752924 0.14193659 0.17548513 0.23051973 0.23553827 0.05325164 -0.2920705 -0.02594544 -0.21759158 -0.090677425 -0.12119428 0.023771122 -0.008359841 -0.09409673 -0.001544585 -0.13327315 0.13643782 -0.24942814 -0.035563193 0.17543487 0.058814757 -0.022951692 0.38538182 -0.10180314 -0.08999086 -0.00843635 -0.027062066 0.18626115 0.27860472 -0.026657108 -0.046502907 -0.15305816 -0.114352815 0.05418353 0.10979552 -0.013841438 0.00047449095 0.17521217 -0.10447259 0.13874634 0.01050646 0.031197272 -0.15387863 0.04532796 0.04515543 -0.016676221 -0.046394896 -0.18477528 -0.17104296 -0.12111955 0.018587356 -0.14314733 0.050618943 -0.038978267 0.024858398 -0.11654111 0.08832288 -0.11052594 -0.03478121 -0.15173799 0.08119362 -0.032049693 0.042934116 0.15068991 -0.18308865 0.12956327 -0.06551741 -0.23986146 -0.08003866 -0.022141421 -0.013466031 0.14223817 0.051441714 -0.14837506 0.0723242 -0.012621372 0.109647624 0.061623503 -0.24107431 -0.06468632
language 0.074998565 0.076709375 0.006377605 0.12204835 -0.11548427 0.08801568 -0.108971044 0.19775274 -0.2427496 -0.04809822 -0.32782328 0.059221134 0.026061142 0.10294086 -0.09431299 -0.17138918 -0.0017546057 -0.2057141 -0.11708195 -0.123130634 -0.17186667 0.15123008 0.17147969 0.22271025 0.21870735 0.049864087 -0.27542028 -0.014485934 -0.2173981 -0.08574835 -0.1278827 0.029287178 0.0059861643 -0.110095404 -0.003485893 -0.14416216 0.121591106 -0.23284803 -0.034908317 0.16177891 0.06309597 -0.020229721 0.36695445 -0.104233086 -0.08795351 -0.002821267 -0.041232377 0.18366529 0.28590956 -0.023737343 -0.035114843 -0.12815015 -0.10915145 0.044153564 0.10503271 -0.01838073 0.002087011 0.16866347 -0.08742002 0.12189424 0.008063714 0.014256849 -0.13954934 0.033495355 0.042628467 -0.008947592 -0.056937095 -0.17124978 -0.16396731 -0.116312824 0.02746666 -0.13748784 0.048663814 -0.039860148 0.019631637 -0.09712132 0.092878856 -0.12656136 -0.030246098 -0.15560496 0.08728443 -0.030191822 0.030579235 0.16321784 -0.16926582 0.12980029 -0.055594716 -0.24432507 -0.07636451 -0.009029223 -0.01431845 0.15392517 0.06618899 -0.14429572 0.06533466 -0.023507034 0.11070227 0.0698685 -0.22407725 -0.060887378
text 0.057059035 0.0765442 0.0186134 0.11288436 -0.12156795 0.08803038 -0.107753046 0.20302092 -0.26051062 -0.042488422 -0.3173774 0.07559878 0.036808576 0.11797413 -0.07635621 -0.18457592 -0.0059285816 -0.20947112 -0.11645664 -0.12782484 -0.18937965 0.14007698 0.16243179 0.22658819 0.21935515 0.05529955 -0.27699628 -0.027138922 -0.1972826 -0.07982733 -0.1177423 0.018889893 -0.004642627 -0.10741885 0.0010139436 -0.14583407 0.12358214 -0.25001273 -0.025530385 0.15139465 0.05746963 -0.021902094 0.36909288 -0.11375958 -0.07877089 -0.019586261 -0.04543999 0.17303109 0.28949055 -0.016125362 -0.0375167 -0.13838044 -0.09836728 0.051709976 0.109534115 -0.01990564 0.013680169 0.16901335 -0.08993922 0.13512126 -0.0010681052 0.011044088 -0.14519335 0.027627992 0.060438115 -0.024758074 -0.05650059 -0.17756915 -0.15247938 -0.1261516 0.028849252 -0.14592122 0.04876639 -0.050684683 0.0058586956 -0.10414731 0.098024726 -0.11389364 -0.024217438 -0.15292811 0.08530334 -0.033378832 0.030854028 0.14815308 -0.17196923 0.14673169 -0.048917674 -0.25416136 -0.075129114 -0.0014545828 -0.025134603 0.15502103 0.055300172 -0.14230356 0.068768755 -0.010868029 0.118932806 0.07712004 -0.23531276 -0.05987481
in 0.06642497 0.07350634 0.014015778 0.091819495 -0.10144785 0.07317141 -0.10099402 0.18861625 -0.21597071 -0.020338247 -0.28490877 0.063298315 0.03175147 0.09591168 -0.068045974 -0.15487587 -0.021635786 -0.17809847 -0.11361323 -0.121574394 -0.16818176 0.13124195 0.14732075 0.19674845 0.20068562 0.048521 -0.25885627 -0.019991145 -0.18513332 -0.0835338 -0.09668175 0.014827779 -0.0025975138 -0.09059551 -0.011424905 -0.121913694 0.101384915 -0.2242702 -0.016790388 0.15976994 0.05653735 -0.0022728967 0.345655 -0.09252472 -0.07131081 -0.012672406 -0.038726553 0.15651284 0.26914352 -0.011710815 -0.04317965 -0.12352801 -0.11004052 0.056339853 0.09175418 -0.013436242 0.009583636 0.15069535 -0.095236845 0.11163261 -0.0065004914 0.02645061 -0.1415599 0.019800443 0.047476508 -0.015647793 -0.044064973 -0.15068507 -0.12743165 -0.1261139 0.029440386 -0.12984128 0.051445358 -0.046636406 0.024453545 -0.087738484 0.082409665 -0.112205535 -0.031649828 -0.12613316 0.08733964 -0.041734576 0.050322007 0.15070969 -0.15613559 0.12870719 -0.04870041 -0.21975268 -0.07843736 -0.003836344 -0.01615044 0.13908632 0.06382379 -0.11948841 0.052352987 -0.024086064 0.10959825 0.07226605 -0.22067945 -0.0642966
task 0.07353473 0.08089869 0.007982278 0.10536571 -0.12755589 0.09158852 -0.11693092 0.20911339 -0.25488436 -0.03147402 -0.3290243 0.06596596 0.031475194 0.12342074 -0.074498534 -0.17301652 -0.015971508 -0.19671907 -0.12082429 -0.123723276 -0.196952 0.16417375 0.1739448 0.21566151 0.23177321 0.05290606 -0.28320965 -0.026641756 -0.20606531 -0.083281346 -0.1108566 0.01947522 0.008072686 -0.10157366 -0.007020844 -0.13823698 0.13424684 -0.24702144 -0.021125497 0.17518964 0.06007598 -0.010497071 0.3881873 -0.111188285 -0.08436198 -0.010129942 -0.03789206 0.16991466 0.28477636 -0.025692966 -0.039701406 -0.15136236 -0.11780974 0.06402655 0.10274758 -0.018325243 0.01256146 0.1594691 -0.102894835 0.13790773 -0.007129129 0.025774378 -0.13661107 0.039131697 0.046412412 -0.014195139 -0.046273153 -0.17739078 -0.16098851 -0.13507116 0.024389967 -0.13718699 0.038839545 -0.034633715 0.027694678 -0.09061161 0.08695849 -0.11368428 -0.041356944 -0.14012635 0.09790113 -0.03716426 0.034574535 0.14640145 -0.16542375 0.13778989 -0.06683059 -0.25265098 -0.0924046 -0.023184394 -0.041877538 0.1492577 0.066659786 -0.13798618 0.07002188 -0.020243743 0.12770094 0.07088674 -0.2420312 -0.06637428
knowledge 0.06415186 0.074467234 0.010669039 0.12824716 -0.12121871 0.1053208 -0.105949394 0.20979786 -0.26832035 -0.022880536 -0.35419887 0.07549475 0.035296593 0.11722807 -0.07949318 -0.18041264 -0.028526392 -0.21095434 -0.1143227 -0.119823225 -0.20499122 0.16826011 0.16346228 0.23811775 0.23740473 0.054849345 -0.2890954 -0.010812154 -0.20874795 -0.10545343 -0.124645315 0.020629544 -0.008700319 -0.119593486 0.0069970866 -0.13722362 0.13868016 -0.25649595 -0.042187203 0.18858129 0.04945041 -0.0120977955 0.40886924 -0.112541914 -0.10994767 -0.018011617 -0.044536196 0.16904534 0.3071383 -0.016491825 -0.044264864 -0.14158748 -0.1004567 0.052196972 0.1026981 -0.008535588 0.00059057656 0.15225923 -0.095962085 0.14495513 0.012229525 0.02765344 -0.15251757 0.036764264 0.054947525 -0.01849152 -0.046752587 -0.17904371 -0.15842064 -0.1523451 0.023919346 -0.16216365 0.04225865 -0.054300457 0.025419937 -0.1029005 0.08675553 -0.09817334 -0.03941761 -0.14862037 0.086191714 -0.028470825 0.048234083 0.15194239 -0.16077136 0.14448965 -0.073492475 -0.26489693 -0.10531856 -0.014188059 -0.045487378 0.16450793 0.06250827 -0.1407825 0.08533501 -0.015264241 0.12697002 0.06808277 -0.2516782 -0.060038354
programming 0.052437156 0.06207637 -0.0029504253 0.12394346 -0.122357495 0.10261774 -0.1072349 0.20824027 -0.26441047 -0.046396483 -0.32646647 0.06141925 0.030316018 0.12523042 -0.081050016 -0.17865205 -0.016731976 -0.19655813 -0.11695046 -0.12435291 -0.17456724 0.16155735 0.17059249 0.21997209 0.2228629 0.065403 -0.28489187 -0.025283415 -0.21508029 -0.09234371 -0.12198929 0.03027702 -0.0141437445 -0.102498114 -0.0016347647 -0.12907031 0.11753492 -0.25199372 -0.030775191 0.17802267 0.05504207 -0.018962735 0.39721644 -0.09997719 -0.10758612 -0.016748894 -0.027415106 0.1657228 0.30151105 -0.023774667 -0.06020526 -0.14742152 -0.102249235 0.054271504 0.10926715 -0.012343436 0.0048085074 0.16316538 -0.08721836 0.13511628 -0.00031265913 0.013309451 -0.13330187 0.03285995 0.061011843 -0.017378116 -0.048207372 -0.1881352 -0.14942779 -0.1457457 0.019275866 -0.15125126 0.04910557 -0.04502261 0.008122848 -0.113291465 0.07277013 -0.106840946 -0.042340096 -0.14664866 0.097965874 -0.028465012 0.042352244 0.16081825 -0.16465637 0.1402387 -0.05813637 -0.2488975 -0.09102414 -0.0017045354 -0.031085612 0.15886194 0.049091022 -0.15208079 0.081234515 -0.020056214 0.12560283 0.07147531 -0.2198385 -0.055757105
are 0.07450886 0.076354705 0.010915904 0.11822953 -0.12431314 0.094517946 -0.098538324 0.21065068 -0.24536292 -0.037329763 -0.32861125 0.07699158 0.02653479 0.102842644 -0.0874082 -0.17274989 -0.01805829 -0.19863959 -0.12781143 -0.13375257 -0.1973012 0.12868923 0.17110226 0.23281868 0.22778447 0.051987007 -0.29091978 -0.025304545 -0.20771958 -0.09878858 -0.112128034 0.015524506 0.011727819 -0.1076125 -0.007918769 -0.13129535 0.1259584 -0.2552642 -0.033148695 0.16431524 0.06422344 -0.0032351147 0.36782634 -0.105385505 -0.07557165 -0.018770289 -0.049817957 0.17788644 0.29519588 -0.03139437 -0.03894684 -0.13493338 -0.11336648 0.06392511 0.0911318 -0.002923963 0.003137171 0.17284647 -0.09452783 0.123594224 -0.0010855848 0.027883286 -0.14968976 0.030407967 0.054967787 -0.030277876 -0.046460006 -0.16632356 -0.16018046 -0.13749519 0.025653223 -0.15238522 0.06393514 -0.04965251 0.020270215 -0.10706486 0.096037306 -0.13225557 -0.033058073 -0.13982593 0.101637095 -0.023656366 0.05606614 0.16344076 -0.1751947 0.142073 -0.04129628 -0.23313254 -0.07111486 -0.017462077 -0.030943085 0.14534011 0.07116926 -0.15366817 0.062930405 -0.03226879 0.12577887 0.0899857 -0.2465263 -0.062131293
networks 0.06577234 0.0704749 0.016067903 0.09850814 -0.11360278 0.07679724 -0.10566303 0.21092792 -0.22868924 -0.037552264 -0.30765602 0.059331503 0.017866962 0.100860275 -0.08956729 -0.16905025 -0.007266876 -0.18558478 -0.10628124 -0.12326541 -0.19099537 0.12609103 0.15893795 0.20667696 0.21877424 0.070784144 -0.25878996 -0.01714811 -0.19689538 -0.08612415 -0.11327548 0.023310397 0.014288004 -0.0906591 0.009216148 -0.14324076 0.12050989 -0.236397 -0.02459045 0.1501956 0.07059444 -0.008874362 0.36528972 -0.08661904 -0.08266419 -0.0052844845 -0.0391691 0.1680604 0.2808983 -0.008068543 -0.04417255 -0.12958604 -0.11165989 0.063089766 0.09050936 -0.01064488 -0.005064811 0.16422513 -0.08633121 0.12634124 -0.00703445 0.023561079 -0.124483556 0.025586022 0.044012364 -0.03192753 -0.06914875 -0.16922279 -0.13234165 -0.11473487 0.023591593 -0.14046386 0.052146472 -0.054916047 0.009327116 -0.09699085 0.08008989 -0.12099583 -0.040077943 -0.14473449 0.09336507 -0.025768965 0.048727684 0.15484144 -0.1567135 0.117225505 -0.053657234 -0.23056477 -0.07867618 -0.022646807 -0.033021778 0.13342886 0.05011111 -0.14343482 0.06312318 -0.017191172 0.1189441 0.08851386 -0.21782044 -0.059003666
neural 0.0684215 0.0655951 0.01792031 0.10427308 -0.09913362 0.08647602 -0.093242906 0.19363771 -0.22808857 -0.017738068 -0.28552124 0.066764906 0.02358201 0.10449898 -0.08600244 -0.16554745 -0.01564719 -0.17017773 -0.09624906 -0.11439892 -0.16575073 0.12505601 0.15994853 0.19980288 0.19436161 0.069333024 -0.25481018 -0.0080507 -0.19016278 -0.08872135 -0.09572364 0.024762353 0.016238164 -0.08374435 0.008094314 -0.12685265 0.09652043 -0.22435682 -0.03281799 0.12845379 0.057320293 0.0010125905 0.3400902 -0.08857556 -0.0641826 0.0045447713 -0.029078586 0.15087304 0.2538625 -0.0056486637 -0.04370491 -0.12156122 -0.11033205 0.056007143 0.091647826 -0.021565989 -0.0028930246 0.14614725 -0.07889044 0.1251142 -0.01088791 0.029770639 -0.12336496 0.029241445 0.035633434 -0.032543264 -0.064549126 -0.15699637 -0.12427395 -0.1244615 0.016323468 -0.14284532 0.0594455 -0.040421527 0.023929572 -0.08217069 0.080512844 -0.099918604 -0.04235749 -0.11836142 0.090067394 -0.02652628 0.038200684 0.15093838 -0.14698166 0.10411416 -0.03559528 -0.22120981 -0.081869364 -0.008167308 -0.036069192 0.13474038 0.05250207 -0.14706144 0.068921186 -0.018954657 0.1014066 0.075918205 -0.20878522 -0.06633582
from 0.07050711 0.06832952 0.012734969 0.1093579 -0.10955736 0.08716756 -0.10352324 0.1894525 -0.2430201 -0.020859975 -0.30668715 0.05781401 0.03462586 0.11270103 -0.068457074 -0.16970551 -0.010951796 -0.18076795 -0.10693951 -0.119444944 -0.18236807 0.13787076 0.15495533 0.21710719 0.21672595 0.05057257 -0.25762346 -0.025423378 -0.18550597 -0.08601737 -0.107921764 0.02450864 -0.007597404 -0.08887091 0.0011908778 -0.12013107 0.11883774 -0.22888377 -0.021421285 0.15597081 0.04977976 -0.020496173 0.34549907 -0.09438169 -0.09316398 0.0045564673 -0.02719259 0.16554491 0.27521026 -0.018344844 -0.054519795 -0.13453259 -0.10086059 0.059076402 0.09076274 -0.016702654 0.0080744 0.14180966 -0.09872314 0.120556355 -0.0067703715 0.008581068 -0.1348065 0.023657931 0.044662036 -0.031455774 -0.048707735 -0.16593942 -0.132374 -0.11748403 0.030478485 -0.14321792 0.047482572 -0.042828474 0.030421626 -0.08443589 0.09235498 -0.08935992 -0.033101365 -0.13274871 0.09542565 -0.044305347 0.037747573 0.15118913 -0.15612137 0.11756255 -0.05463922 -0.23824972 -0.075438716 -0.00012502841 -0.036745474 0.14088957 0.06747897 -0.13284966 0.060286205 -0.013089148 0.11468093 0.07372941 -0.2313252 -0.060669303
patterns 0.060479198 0.051532872 -0.0010432497 0.08113959 -0.10135447 0.061198194 -0.086187616 0.17338552 -0.21589567 -0.028318577 -0.26462635 0.05487749 0.019723857 0.08896907 -0.061521105 -0.13160728 -0.009302967 -0.15399379 -0.08101277 -0.10094492 -0.13401929 0.12902294 0.13596922 0.17885013 0.1693857 0.053458013 -0.21619585 -0.006358353 -0.16371052 -0.06408791 -0.093054205 0.008529238 -0.016755963 -0.07300375 -0.006635421 -0.11832177 0.0904066 -0.18463181 -0.0267214 0.14603744 0.04908069 -0.010021023 0.3024653 -0.08139872 -0.082079984 -0.014901673 -0.020347312 0.14611267 0.23352884 -0.02742125 -0.041725468 -0.119847745 -0.09600775 0.036036417 0.084265895 -0.024253145 0.021597527 0.124123916 -0.082382716 0.10343966 0.011135613 0.009537764 -0.12122875 0.017985053 0.045477074 -0.026716521 -0.032309137 -0.14361115 -0.11325248 -0.110289015 0.028812379 -0.11584344 0.04131196 -0.042108975 0.03100946 -0.084928565 0.07160863 -0.08290069 -0.03234644 -0.1137233 0.06689799 -0.04553459 0.029940061 0.11173047 -0.13240092 0.10961594 -0.05406659 -0.20383915 -0.07496157 -0.0035040174 -0.029698906 0.11719882 0.037404783 -0.11964838 0.053196613 -0.016746704 0.09688968 0.06504611 -0.18893187 -0.037288662
machine 0.056344233 0.058864474 -0.00309815 0.09378506 -0.10112087 0.07424996 -0.08576603 0.18518211 -0.21964559 -0.02505719 -0.28947628 0.05028707 0.03145387 0.09225772 -0.076948665 -0.14658803 -0.014055345 -0.18526705 -0.0968728 -0.111561246 -0.1496007 0.13936785 0.14386275 0.18983598 0.1999258 0.039915096 -0.25257257 -0.02618105 -0.19038674 -0.06961086 -0.11660863 0.009380606 0.00027477133 -0.09240224 0.0070253597 -0.13293979 0.09973181 -0.22090688 -0.02096694 0.15481867 0.049109668 -0.020807395 0.3240049 -0.087952524 -0.09064422 -0.0016872804 -0.02677366 0.1617631 0.25577992 -0.029565878 -0.046332125 -0.11831486 -0.0934102 0.050062537 0.089853875 -0.023704493 0.020320589 0.14989199 -0.074617654 0.12586713 0.00012625736 0.010025645 -0.1270285 0.04117009 0.045519862 -0.018119995 -0.0316863 -0.1585112 -0.12733859 -0.09867701 0.012370485 -0.1352446 0.051040664 -0.029509647 0.010810039 -0.096259706 0.07901409 -0.08938546 -0.03777512 -0.12468752 0.078845605 -0.04378708 0.033916418 0.1350366 -0.14625274 0.1103211 -0.044331044 -0.22663967 -0.06648806 -0.017244652 -0.015705679 0.1290896 0.047009535 -0.14218813 0.06771135 -0.025918966 0.11160565 0.067478776 -0.19694452 -0.045898695
intelligence 0.04326292 0.068366796 0.013870259 0.07800228 -0.100488044 0.08337519 -0.09185189 0.1711037 -0.21429238 -0.037999384 -0.2537186 0.04316856 0.022436365 0.08954719 -0.07811792 -0.15393284 -0.000497231 -0.15966375 -0.10156728 -0.09041864 -0.15826787 0.10754193 0.14622141 0.16569495 0.18463224 0.06222274 -0.22716738 -0.0076882085 -0.17049347 -0.08232827 -0.09370402 0.034157783 -0.013022953 -0.07230759 -0.0013018596 -0.11315571 0.09556015 -0.19437134 -0.03175882 0.12417899 0.047688536 -0.023762854 0.306947 -0.0775675 -0.08669254 -0.0063941292 -0.036069445 0.14503296 0.23875831 -0.006385741 -0.044799604 -0.124824405 -0.09587467 0.04643432 0.07059704 -0.025026178 0.012920907 0.1414781 -0.06967093 0.100146964 0.002584315 0.021076972 -0.12597002 0.029417394 0.04259005 -0.014909219 -0.032599438 -0.14146228 -0.12670468 -0.0962332 0.02049963 -0.11771558 0.039803438 -0.020982401 0.017314604 -0.07496097 0.05953662 -0.09136598 -0.0148677835 -0.117668316 0.081112064 -0.048115645 0.020149253 0.13231985 -0.14243715 0.112885706 -0.04916599 -0.19923231 -0.06507199 -0.021090494 -0.0088305045 0.12762246 0.045164187 -0.123681456 0.04581903 -0.008214 0.09338109 0.045223605 -0.19701858 -0.04012548
artificial 0.040949035 0.052618057 0.009878698 0.07404753 -0.08094852 0.079090096 -0.07097206 0.17070466 -0.2061011 -0.035786483 -0.2534865 0.048820276 0.025243241 0.087530196 -0.063437425 -0.1335224 -0.0054633464 -0.15592963 -0.09089331 -0.09783001 -0.15481 0.11917212 0.13566579 0.1748497 0.17589042 0.05595965 -0.21150154 -0.0077656657 -0.16252153 -0.07991687 -0.0859409 0.03183453 0.0009207862 -0.07094033 0.009028499 -0.10336464 0.09893365 -0.1978353 -0.035114788 0.118569486 0.039968573 -0.0077064973 0.29557094 -0.086762294 -0.08205616 0.008053574 -0.02173922 0.1330287 0.22720832 -0.008760662 -0.029469486 -0.10059163 -0.08175728 0.04086704 0.07912946 -0.021146465 0.0013926155 0.12973946 -0.073130585 0.1034039 -0.0013012658 0.015866578 -0.12451214 0.029886805 0.041644882 -0.0036668489 -0.03728906 -0.13946909 -0.13155322 -0.10516401 0.011397324 -0.11657669 0.040345702 -0.030729664 0.017580146 -0.09107952 0.060524642 -0.094677426 -0.027942318 -0.109701514 0.060368463 -0.03873499 0.019797426 0.13195987 -0.12848315 0.10223461 -0.04984033 -0.1984314 -0.072237566 -0.0077750734 -0.013740733 0.12327205 0.03829042 -0.12256673 0.050254356 -0.018056195 0.10045358 0.046348345 -0.18598923 -0.046774153
of 0.04205083 0.06483831 0.004432913 0.080419846 -0.10577467 0.06651494 -0.09981174 0.17559107 -0.22381665 -0.020683428 -0.28097898 0.061591942 0.025110735 0.09437716 -0.06185119 -0.1561961 -0.017973788 -0.17457898 -0.10513135 -0.11453313 -0.1622073 0.12985928 0.1420188 0.18845393 0.19454747 0.059514422 -0.24799114 -0.005389842 -0.1683667 -0.0625658 -0.10313623 0.03301058 0.0042503322 -0.093860924 0.0010544856 -0.12541628 0.11927081 -0.20882432 -0.026983928 0.13309401 0.043420013 -0.020743132 0.32247242 -0.083017804 -0.06931805 -0.0050690756 -0.041059237 0.14117429 0.24326903 -0.022409398 -0.047417782 -0.12319827 -0.087386355 0.039960366 0.07330463 -0.009562414 0.0051352885 0.13567995 -0.07951979 0.114472724 0.0010623371 0.011624129 -0.111882806 0.028120128 0.052779626 -0.013985825 -0.051382322 -0.14185931 -0.13773589 -0.1006361 0.004991749 -0.12754256 0.047684323 -0.02235793 0.009868624 -0.09557648 0.067691445 -0.08538654 -0.022517672 -0.12732562 0.07837776 -0.04272608 0.023853721 0.13896142 -0.14101708 0.10670476 -0.042642605 -0.20858851 -0.08127005 -0.011664692 -0.032894254 0.1184694 0.056479476 -0.12549777 0.051966935 -0.0047903215 0.09784002 0.06512827 -0.19368286 -0.057446066
processing 0.052612014 0.055885844 0.014659985 0.07943014 -0.093308434 0.05912983 -0.08755687 0.14896858 -0.20337757 -0.016089005 -0.2548543 0.05765562 0.010834124 0.09307035 -0.067465395 -0.13397662 -0.01524134 -0.1495395 -0.08655338 -0.09347464 -0.1412448 0.11572216 0.13815877 0.1649188 0.1658043 0.037588228 -0.22088018 -0.02163538 -0.164193 -0.057146505 -0.09763567 0.01715009 0.006480831 -0.066728115 -0.009443098 -0.11340268 0.09011938 -0.18438944 -0.009268353 0.11899252 0.034129947 -0.017902045 0.29762867 -0.08929838 -0.07181079 -0.010923877 -0.036740884 0.14118768 0.20541112 -0.018282568 -0.029290179 -0.10616139 -0.09453098 0.040456586 0.089039415 -0.01786012 0.0059880633 0.12782697 -0.06844261 0.09331035 0.0115164695 0.028152743 -0.120485336 0.03307396 0.047793802 -0.007873133 -0.039438464 -0.13456737 -0.11277888 -0.10494196 0.021097722 -0.09996433 0.04168395 -0.030116374 0.016490048 -0.089391775 0.074152865 -0.091372296 -0.0356518 -0.107919954 0.07281858 -0.02812992 0.017619383 0.12560475 -0.12574244 0.11026376 -0.032354392 -0.19580446 -0.07312452 -0.0022977612 -0.016767753 0.109919846 0.041724928 -0.10806033 0.055296414 -0.024573626 0.09200081 0.064774774 -0.18131804 -0.051350508
natural 0.05869477 0.04822913 0.006001246 0.082757816 -0.08310601 0.05660153 -0.08405669 0.14841716 -0.18556982 -0.023151867 -0.24449742 0.048303682 0.0129978005 0.09437853 -0.059255213 -0.13709828 -0.012516026 -0.14392343 -0.08001462 -0.09471222 -0.1420734 0.11652585 0.13402237 0.16651763 0.15840572 0.043504626 -0.21376036 -0.005714577 -0.1557162 -0.06946946 -0.087859474 0.010120263 -0.008345999 -0.071688466 0.007167642 -0.09835654 0.0943183 -0.1932976 -0.0085127195 0.12351358 0.036610518 -0.0053156274 0.29218632 -0.07391325 -0.0728896 0.0047823004 -0.031046074 0.13206777 0.22004955 -0.010619722 -0.044223975 -0.11090786 -0.0878895 0.05081475 0.081990436 -0.018218849 0.010159773 0.12943216 -0.0742212 0.096009195 0.012135872 0.019100511 -0.120278016 0.030381048 0.04266745 -0.012689502 -0.032575894 -0.12397019 -0.120676555 -0.09920036 0.008707654 -0.104774445 0.03529983 -0.03096672 0.01957989 -0.08213016 0.06401755 -0.087275006 -0.032361068 -0.121007435 0.07550622 -0.037890848 0.022897448 0.122801185 -0.13451546 0.107145734 -0.03567773 -0.18414457 -0.070010945 -0.01929835 -0.009637344 0.10653597 0.051594682 -0.116187096 0.043172784 -0.009223519 0.09801953 0.060901515 -0.1709005 -0.053008724
corpora 0.06312398 0.05743633 0.0027558878 0.08164489 -0.088428415 0.069528304 -0.0826811 0.16218294 -0.21931572 -0.040690895 -0.27527243 0.061697543 0.037653383 0.09977243 -0.07212793 -0.15427567 0.0023204887 -0.16535066 -0.09813345 -0.09856858 -0.14920755 0.12545955 0.13275702 0.19201879 0.19017632 0.04468734 -0.24002352 -0.014854133 -0.18465321 -0.08214952 -0.092021406 0.032740172 0.004101714 -0.090828344 -0.002318715 -0.10828897 0.09920065 -0.21124002 -0.025759326 0.13089919 0.046358217 -0.0029312447 0.31905416 -0.085545786 -0.071721844 -0.008603472 -0.04095749 0.1575081 0.24857347 -0.012972519 -0.03567337 -0.11301511 -0.08119413 0.04396801 0.091483146 -0.013392198 0.0063873255 0.14096634 -0.07284947 0.09909534 0.0050596287 0.012874592 -0.12264223 0.036240157 0.051205214 -0.012444951 -0.046369668 -0.13212739 -0.12812749 -0.093325324 0.00817416 -0.113501206 0.05730802 -0.034458227 0.007857135 -0.07691489 0.065796725 -0.100418314 -0.021038568 -0.1230144 0.079894654 -0.037582472 0.036041588 0.13634922 -0.13853179 0.10963897 -0.047526356 -0.20840172 -0.06054416 -0.004407011 -0.029330771 0.12063021 0.049300525 -0.13489231 0.06312275 -0.011800979 0.09494203 0.073302515 -0.198031 -0.05557132
massive 0.0495174 0.042014975 -0.00064251083 0.082662724 -0.09169685 0.077099174 -0.09068397 0.1676513 -0.20544334 -0.0421735 -0.25071475 0.06006031 0.029776156 0.07819068 -0.080175124 -0.14029585 -0.008050071 -0.14758609 -0.096865125 -0.10190401 -0.13606599 0.10162589 0.114801414 0.17746077 0.1717247 0.04844047 -0.21343009 -0.0072171907 -0.17014429 -0.064756885 -0.08789543 0.012356231 0.012707074 -0.09102136 0.00060154055 -0.09940335 0.08826883 -0.19457804 -0.025699563 0.1323461 0.035193183 -0.0072368276 0.28906843 -0.09034383 -0.06024053 -0.001093294 -0.03028759 0.13386668 0.22023645 -0.02025477 -0.028985849 -0.10220287 -0.08958714 0.04034069 0.07769768 -0.009205707 0.013000193 0.13350977 -0.08428912 0.10731076 -0.011174701 0.026824258 -0.12316575 0.026258484 0.031836428 -0.029157912 -0.036280457 -0.12592493 -0.1368427 -0.08665661 0.015044814 -0.114915095 0.039689865 -0.039381675 0.0068284334 -0.0796049 0.06415406 -0.104547925 -0.025584206 -0.11088697 0.07720388 -0.03066132 0.026811173 0.13180119 -0.129232 0.11324138 -0.03219901 -0.18516019 -0.046489637 -0.0070654885 -0.026205074 0.11106804 0.04645286 -0.116083905 0.059664242 -0.0119538605 0.08610044 0.06297287 -0.19199313 -0.03840164
on 0.054832734 0.050091688 0.012957007 0.10634392 -0.09484589 0.07301359 -0.09967054 0.1768941 -0.23532948 -0.03789723 -0.29664588 0.054448634 0.032921627 0.089639835 -0.088295996 -0.17036758 -0.017421318 -0.18183863 -0.09841946 -0.10428537 -0.17467552 0.11576747 0.13833351 0.2095878 0.20432815 0.060237024 -0.25676975 -0.02524899 -0.1993161 -0.09334273 -0.11351777 0.031726874 -0.00015472688 -0.089738965 -3.4830104e-05 -0.12059183 0.10471985 -0.21010697 -0.038988758 0.13395634 0.044994056 -0.013363621 0.33439794 -0.09042613 -0.0717008 -0.0141359875 -0.04100071 0.16626209 0.25412875 -0.021517968 -0.032248925 -0.11219838 -0.09164881 0.04506194 0.0897302 -0.017364511 0.0057360474 0.142418 -0.08196046 0.10531388 0.0014843371 0.024778806 -0.12031924 0.020741682 0.051695447 -0.033756007 -0.04964594 -0.15629774 -0.15549287 -0.117468454 0.011448599 -0.12137613 0.041876957 -0.047178276 0.019154118 -0.07822601 0.08868697 -0.11756217 -0.014978386 -0.1279906 0.07447008 -0.033616662 0.04447418 0.14182702 -0.15927461 0.13153102 -0.035651322 -0.20981218 -0.05325288 0.0033149493 -0.028840404 0.12604499 0.060888562 -0.14441831 0.064215176 -0.017043801 0.1173323 0.068886176 -0.21983944 -0.047602445
trained 0.046300344 0.058648475 0.0152805885 0.09384913 -0.10174766 0.085185975 -0.093355894 0.17891459 -0.220344 -0.047858004 -0.27725053 0.04956035 0.03828665 0.09606989 -0.082372755 -0.15245643 -0.0042141345 -0.17638984 -0.10652941 -0.10660426 -0.16384794 0.12459178 0.12708889 0.20077735 0.18648793 0.05270036 -0.2496129 -0.019206883 -0.17438081 -0.08534049 -0.106197864 0.024189934 -0.0027988628 -0.09573091 -0.0016946789 -0.11422478 0.10521196 -0.20324767 -0.019464718 0.12560223 0.04098213 -0.021931611 0.30675083 -0.09717691 -0.06803218 0.0007855362 -0.02915413 0.15484922 0.25237334 -0.02744633 -0.026159972 -0.10426121 -0.0998393 0.0429822 0.09564198 -0.014692399 0.015010146 0.15200217 -0.08132322 0.097272106 -0.0055525727 0.012964969 -0.12497813 0.030717947 0.04307132 -0.028632993 -0.047996584 -0.13901275 -0.15038747 -0.110956274 0.026414683 -0.13022621 0.046445325 -0.046001453 0.005039625 -0.08730756 0.07633004 -0.10966539 -0.03309623 -0.13228127 0.081265174 -0.024839094 0.027104562 0.13319062 -0.14876395 0.11368789 -0.049221598 -0.21893407 -0.061854374 -0.009533615 -0.030217573 0.11984323 0.06510693 -0.12900874 0.057971295 -0.02376707 0.107284784 0.075428255 -0.21427868 -0.041897364
models 0.062266435 0.04737989 0.015437475 0.08546398 -0.10930577 0.068410076 -0.09255956 0.176851 -0.22180967 -0.044827167 -0.285231 0.06621502 0.04090116 0.09989825 -0.08742625 -0.1448995 -0.0039453786 -0.17001797 -0.10818781 -0.093351066 -0.15911701 0.1109749 0.12907113 0.19348247 0.1799867 0.04780348 -0.24239992 -0.007685677 -0.1886516 -0.07903052 -0.08988943 0.029326573 0.012977208 -0.09777783 0.005282732 -0.104544684 0.09729272 -0.20634618 -0.026263097 0.13698879 0.0399163 -0.000657031 0.32690045 -0.09239274 -0.064033195 -0.009377498 -0.028344296 0.1548952 0.24657951 -0.02771624 -0.029837305 -0.11685997 -0.09834045 0.03796709 0.099987894 -0.022369638 0.014267697 0.14998925 -0.091103524 0.1084459 0.0009910999 0.01609956 -0.12030358 0.026296144 0.04160613 -0.024673305 -0.037246305 -0.14003494 -0.14245704 -0.09528881 0.025841236 -0.11230676 0.052520823 -0.04450651 0.021730632 -0.088056765 0.07187924 -0.10403506 -0.014201767 -0.12348584 0.07580335 -0.033258684 0.02959613 0.14019667 -0.14767541 0.117794365 -0.04666089 -0.2133303 -0.051522102 -0.0093649095 -0.036581565 0.12305203 0.056879386 -0.13982631 0.056213822 -0.0249657 0.10222466 0.07358138 -0.19428912 -0.05290986
large 0.05963281 0.044607293 0.015346656 0.08631255 -0.08478398 0.07488765 -0.08150712 0.15414757 -0.1997534 -0.02680904 -0.243574 0.062053088 0.020687798 0.08752305 -0.07955068 -0.13427314 0.0028041834 -0.16415882 -0.08847169 -0.0860052 -0.13695386 0.10803597 0.11419238 0.18712768 0.18108214 0.047571313 -0.20967913 -0.026103122 -0.16180699 -0.082799315 -0.08125203 0.02467702 0.011071138 -0.08102198 -0.009752018 -0.11427124 0.08794073 -0.18229225 -0.031450525 0.13120757 0.03522681 -0.010234169 0.28274438 -0.08208174 -0.065740705 -0.016807709 -0.029879848 0.14527188 0.23309092 -0.022610648 -0.021567082 -0.09495865 -0.073334396 0.03677187 0.088745795 -0.010608249 -0.0026830009 0.12525573 -0.06936161 0.090260655 -0.0020118922 0.022517843 -0.11908599 0.025252204 0.032697205 -0.019924896 -0.04523688 -0.12179342 -0.13629407 -0.08616234 0.023592737 -0.10320726 0.05043496 -0.04381029 0.022228807 -0.074828625 0.07885559 -0.086486146 -0.020513028 -0.11619077 0.06188481 -0.037109327 0.0297386 0.12930407 -0.13140899 0.105607666 -0.045299493 -0.1896516 -0.053517792 0.0045406097 -0.020611022 0.11748992 0.057988234 -0.11970302 0.06530283 -0.019512111 0.08523008 0.061231032 -0.19306275 -0.052494258
another 0.069874145 0.07173424 0.0056896703 0.10007028 -0.1096974 0.07360713 -0.082689494 0.17218956 -0.21088776 -0.0178327 -0.2901511 0.042002868 0.03353136 0.101301625 -0.0698617 -0.1539872 -0.01702406 -0.16001472 -0.094853 -0.11250157 -0.15899451 0.13399294 0.13032287 0.18615189 0.19741353 0.056359127 -0.24802704 -0.024524871 -0.17164055 -0.0765977 -0.08634274 0.019609338 0.0072469767 -0.09707707 -0.00039965747 -0.12707917 0.11119064 -0.21229404 -0.024519889 0.13776793 0.03789322 -0.019609312 0.32553253 -0.07745924 -0.08522684 -0.0072341138 -0.037740026 0.1523925 0.24300799 -0.0036182015 -0.048318014 -0.1297875 -0.0895086 0.049791984 0.09521641 -0.004607595 0.0155341225 0.1366741 -0.08332158 0.11105503 -0.0101483045 0.017508421 -0.12280929 0.015408399 0.035388783 -0.016954247 -0.0435362 -0.13783352 -0.12755947 -0.102602564 0.021523029 -0.13686436 0.0363587 -0.0308781 0.019334134 -0.086220205 0.07341723 -0.077222966 -0.033804543 -0.13192266 0.07289491 -0.023900913 0.044270936 0.13774331 -0.12834793 0.10560105 -0.05427939 -0.22517158 -0.09018367 -0.0023712262 -0.019873813 0.121009015 0.056708712 -0.123892784 0.052195147 -0.003010252 0.109158844 0.064402126 -0.19523463 -0.056443065
to 0.070665926 0.066537224 0.022925355 0.08799659 -0.112811565 0.09269417 -0.09621802 0.18062524 -0.22036502 -0.035582308 -0.29570186 0.050789673 0.01787721 0.115079515 -0.08070332 -0.16865124 -0.011355319 -0.16405433 -0.10992768 -0.10735981 -0.16843039 0.14445886 0.1363421 0.21023232 0.20404361 0.06361248 -0.25477207 -0.005974368 -0.17866306 -0.08638137 -0.09219373 0.027211227 -0.005716982 -0.09609447 -0.00043657277 -0.12471237 0.12642388 -0.20640957 -0.031634573 0.15716797 0.044504646 -0.0073710093 0.34675014 -0.09267635 -0.083625466 -0.007187512 -0.025458045 0.15041654 0.2522797 -0.017853582 -0.0504114 -0.12888986 -0.10212937 0.039820362 0.093850024 -0.022976618 0.0089360215 0.1464242 -0.08026802 0.11627645 -0.00965293 0.028382914 -0.11821886 0.028558152 0.033642378 -0.029236414 -0.04714107 -0.16418928 -0.1266572 -0.12326629 0.01525613 -0.12139053 0.051616404 -0.044047523 0.015847743 -0.08632563 0.08113463 -0.0800633 -0.023984376 -0.11800884 0.06882242 -0.04266753 0.04185063 0.1260348 -0.14776795 0.1108844 -0.042812657 -0.23581836 -0.0907084 -0.015905049 -0.03998472 0.135976 0.051201336 -0.12157251 0.060757216 -0.010286931 0.10820509 0.06770246 -0.20384233 -0.06368838
one 0.06455926 0.07526881 0.020936664 0.09768287 -0.10144405 0.09039291 -0.08869279 0.19258986 -0.23040333 -0.02916669 -0.29941484 0.04692289 0.024183301 0.09821452 -0.075331464 -0.16090535 -0.013741728 -0.16144054 -0.09351911 -0.112965584 -0.17117089 0.14018771 0.13531819 0.1969614 0.19763793 0.050132725 -0.24627325 -0.018425621 -0.18555811 -0.074656755 -0.10503288 0.024292273 -0.007224408 -0.09617748 0.008475361 -0.13018955 0.12076034 -0.20841502 -0.016865654 0.13671209 0.050496303 -0.002540769 0.34233305 -0.09806639 -0.07390747 -0.013344737 -0.031721935 0.15008679 0.25442743 -0.013836629 -0.05278817 -0.12535295 -0.08522058 0.04649023 0.0830521 -0.0039747707 -0.0011296354 0.13860904 -0.08353773 0.11606727 0.004069564 0.018867094 -0.11329317 0.016808067 0.046244726 -0.016995996 -0.04907288 -0.16002327 -0.12718941 -0.11194399 0.021812582 -0.14114323 0.046997257 -0.027271694 0.0084459 -0.08511362 0.07666841 -0.080849715 -0.03522647 -0.12620953 0.08339492 -0.045292575 0.04514092 0.14183387 -0.13788418 0.12000729 -0.046447314 -0.21940534 -0.07458854 -0.010893767 -0.033112332 0.13503401 0.048104327 -0.12169685 0.06895031 -0.008472343 0.09881806 0.061447192 -0.20956436 -0.053805746
reusing 0.075578146 0.077443615 0.022167312 0.11237457 -0.10902577 0.08502799 -0.09540754 0.19602388 -0.23730226 -0.023890229 -0.31855747 0.057807054 0.017314114 0.11613447 -0.07950729 -0.17280234 -0.015465222 -0.18875082 -0.10758039 -0.112467825 -0.18473013 0.13775563 0.15034443 0.20716016 0.21287829 0.06343443 -0.2775226 -0.010869436 -0.20071183 -0.07707269 -0.101161525 0.019330138 -0.00015233767 -0.11078637 -0.007767236 -0.12388896 0.13032104 -0.23721534 -0.03177719 0.15010838 0.047165483 -0.018324139 0.3605652 -0.095893495 -0.09484258 0.0016043532 -0.030645184 0.16991286 0.2674306 -0.011230686 -0.039943792 -0.14173767 -0.09674772 0.049044892 0.10121808 -0.014947238 0.014147232 0.14435463 -0.09286522 0.11925952 -0.009480337 0.018623361 -0.13613315 0.0193974 0.04900763 -0.020150213 -0.038881734 -0.16110027 -0.1516069 -0.13348106 0.019842088 -0.14108194 0.042291954 -0.033941194 0.021418743 -0.08702476 0.07355537 -0.0886896 -0.0398541 -0.1387048 0.08231039 -0.031536717 0.038158268 0.14078146 -0.15646985 0.1226331 -0.062348705 -0.24929827 -0.09438029 -0.012456112 -0.036762975 0.14069803 0.06263609 -0.1438167 0.07709742 -0.0074161636 0.105762966 0.06673121 -0.23070055 -0.06658674
allows 0.05907585 0.05583274 0.002805232 0.09010195 -0.09564749 0.0745685 -0.07778237 0.17000829 -0.20323418 -0.032428227 -0.27604684 0.056241643 0.015446545 0.10808092 -0.07280754 -0.15144485 -0.01135165 -0.15793361 -0.10520033 -0.09658057 -0.15627974 0.13888398 0.13273421 0.18969084 0.18811426 0.06143621 -0.22983253 -0.006010161 -0.16967571 -0.069352955 -0.09478196 0.018968126 0.004284834 -0.0997011 0.0051983264 -0.1275969 0.11017773 -0.20183136 -0.024727013 0.13764201 0.0419842 -0.013225198 0.31845406 -0.08400874 -0.07164732 -0.004909908 -0.029115757 0.14995314 0.25045875 -0.021100134 -0.037509978 -0.12419015 -0.095041096 0.051608782 0.075509205 -0.005906984 0.012483077 0.14238195 -0.075974256 0.11755031 -0.011692094 0.026979562 -0.12407529 0.020708334 0.03185319 -0.020642534 -0.035402123 -0.15082565 -0.119248435 -0.10713966 0.020774016 -0.114990346 0.040426612 -0.038021896 0.027115958 -0.07977636 0.07508331 -0.087924846 -0.034586232 -0.12727128 0.06869191 -0.039717544 0.044030096 0.11877204 -0.13257504 0.1201773 -0.042658165 -0.2148296 -0.08706949 -0.0020591489 -0.040399108 0.1301272 0.054893278 -0.12835452 0.064808704 -0.017817136 0.09386946 0.06866431 -0.1864246 -0.05886565
transfer 0.06497129 0.06749028 0.015809184 0.07654589 -0.095545076 0.07386756 -0.06929552 0.16707246 -0.19777448 -0.028794277 -0.24639319 0.04437771 0.018918343 0.098803855 -0.062450334 -0.1434984 -0.023931583 -0.14994659 -0.07820973 -0.099063486 -0.14186071 0.11399771 0.13070825 0.17767212 0.17533958 0.053914234 -0.21657172 -0.016643168 -0.15159018 -0.061122414 -0.07987916 0.011422408 0.0013326488 -0.091410436 0.0016561154 -0.10732786 0.09606379 -0.1753915 -0.014179375 0.11908274 0.034343585 -0.014899155 0.30225042 -0.07941816 -0.065935306 0.0006784721 -0.024349079 0.1235576 0.2158683 -0.015313897 -0.041096076 -0.1038216 -0.088853 0.03920502 0.072726816 -0.017959822 0.00054528576 0.11574203 -0.072834 0.10013021 -0.00406604 0.01585889 -0.10259695 0.03058585 0.036896303 -0.013433337 -0.03277783 -0.1319965 -0.12218596 -0.09243254 0.0104538025 -0.11697172 0.0427721 -0.03489222 0.010750371 -0.06607507 0.059955094 -0.082626544 -0.018054157 -0.10620577 0.061692968 -0.026996646 0.045671824 0.10970032 -0.12682617 0.10145569 -0.051958874 -0.20259203 -0.077885166 -0.014182488 -0.0304313 0.11661156 0.04179332 -0.11685689 0.050774876 -0.004749108 0.08514861 0.06520263 -0.18153302 -0.042833738
hidden 0.040770926 0.03838694 0.0060281926 0.054153945 -0.07531522 0.041884683 -0.06305417 0.109629795 -0.15300123 -0.0058391485 -0.18137549 0.03703119 0.025865339 0.052898403 -0.045325886 -0.08969824 -0.008614489 -0.11077737 -0.06932663 -0.08228368 -0.11174266 0.07577178 0.10032045 0.12600827 0.12201619 0.040329114 -0.164267 -0.016151529 -0.11418588 -0.039987568 -0.062547565 0.019675855 -0.011150623 -0.0464606 -0.010957915 -0.08532115 0.06715626 -0.14412391 -0.0069079283 0.103232935 0.033163212 -0.010985924 0.19878602 -0.053324897 -0.049047846 0.0024276369 -0.021015802 0.08839482 0.15255609 -0.004555615 -0.03386112 -0.06894689 -0.06931652 0.034922864 0.067285806 -0.0108355 -0.0034380837 0.095476665 -0.060529217 0.073281415 0.01131605 0.015258 -0.08744549 0.024771802 0.020493325 -0.0052429903 -0.024316203 -0.10409406 -0.08363675 -0.08133923 0.023705818 -0.08990398 0.026270865 -0.023353083 0.016952144 -0.056232262 0.04939881 -0.0574489 -0.011614936 -0.0821071 0.06014215 -0.017889483 0.034942653 0.09452534 -0.083525464 0.06715597 -0.026885329 -0.13055421 -0.05287999 -7.851758e-05 -0.023219777 0.08348774 0.03957656 -0.08832842 0.036466092 -0.004363417 0.06452124 0.05195592 -0.14244163 -0.02877279
discovers 0.046932947 0.05234223 -0.0034793278 0.07297364 -0.073112786 0.047226362 -0.063593365 0.12616046 -0.14865543 -0.017600896 -0.2007744 0.050924595 0.012559568 0.05332991 -0.044280782 -0.10398756 -0.008244416 -0.105574846 -0.0759788 -0.08127236 -0.10665145 0.095614836 0.10249051 0.12737998 0.13351895 0.046876565 -0.16694778 -0.0034730434 -0.111892946 -0.05560687 -0.07398576 0.017116306 -0.0141093 -0.059882488 -0.009616309 -0.08135173 0.06562549 -0.13775158 -0.0056788386 0.1108179 0.0429213 -0.017084533 0.21910162 -0.06454781 -0.045204785 0.0018598813 -0.028546281 0.10235165 0.17261721 -0.010723282 -0.030069437 -0.09184829 -0.06517542 0.028739583 0.06817247 -0.0024910464 0.01214104 0.08254678 -0.050594363 0.07466973 0.001137012 0.021012278 -0.075746424 0.011081898 0.026090067 -0.005902846 -0.02630896 -0.11237024 -0.086413704 -0.07064374 0.008478976 -0.083086096 0.035671335 -0.01735262 0.009446981 -0.064825356 0.05393727 -0.061067637 -0.02114023 -0.07936979 0.063090734 -0.03285293 0.034938112 0.083696306 -0.09726123 0.066677034 -0.037785128 -0.1330961 -0.052147843 0.0008657212 -0.027466953 0.09152222 0.032466803 -0.08149065 0.051431615 -0.010822402 0.061777417 0.04341048 -0.14889324 -0.035369355
unsupervised 0.023346098 0.037722208 -0.0014139141 0.04472243 -0.06697206 0.04925378 -0.042598587 0.10532611 -0.132032 -0.01649854 -0.14475542 0.034041755 0.006924965 0.042104412 -0.04203472 -0.072897114 -0.0152405845 -0.08394705 -0.05054618 -0.05324739 -0.08001929 0.06786776 0.08758799 0.09811119 0.101402104 0.024047747 -0.14150403 -0.016855644 -0.10137661 -0.04898971 -0.058415573 0.0006138905 -0.015547952 -0.03597242 -0.011057578 -0.075946465 0.0474308 -0.121496215 -0.011963326 0.09014575 0.03201965 -0.0041670855 0.16865246 -0.041648872 -0.053166505 0.0007617677 -0.020903584 0.08887718 0.13311893 -0.005682929 -0.024927462 -0.06603986 -0.043054763 0.030519206 0.04784379 -0.009896202 0.0099570425 0.07120708 -0.05353447 0.062102318 -0.0061128396 0.0025278358 -0.06943365 0.022376047 0.029282024 -0.014396187 -0.022937814 -0.09292535 -0.06551708 -0.06886108 0.01779989 -0.06578202 0.028449906 -0.023836449 0.020426735 -0.044328526 0.044988506 -0.041983306 -0.008671285 -0.076576725 0.053819314 -0.015838956 0.016384404 0.06856193 -0.07123877 0.055750523 -0.02978258 -0.11106719 -0.038720604 0.005679997 -0.022772297 0.06622372 0.03765482 -0.06903191 0.02859816 -0.013492267 0.053418674 0.03557055 -0.118418775 -0.024967521
training 0.04081911 0.053158097 -0.004209425 0.071915455 -0.065047026 0.049694214 -0.072795734 0.14370997 -0.16553211 -0.014974424 -0.21513146 0.05114543 0.024546707 0.05977676 -0.04663909 -0.11933587 -0.024753444 -0.13192916 -0.076095656 -0.09368092 -0.108919725 0.090139546 0.10643195 0.14387336 0.15408926 0.048976075 -0.17932253 -0.019682106 -0.124980465 -0.050491937 -0.07590902 0.01591032 -0.01502709 -0.057028484 0.00959477 -0.09112516 0.08031697 -0.15669556 -0.026730496 0.11402373 0.040906116 0.0015051104 0.25852516 -0.06460092 -0.048190504 -0.0013764137 -0.025423108 0.11530292 0.20610969 -0.0065916516 -0.039192844 -0.101803176 -0.070356496 0.035683274 0.06848854 -0.011187981 0.0059924875 0.11298267 -0.0688174 0.08536067 0.0025922076 0.011931757 -0.08022656 0.034460526 0.033261042 -0.012583261 -0.028085824 -0.12299803 -0.10115716 -0.09086114 0.0040676184 -0.1095088 0.037179533 -0.0419382 0.0139515465 -0.06793022 0.055172592 -0.06228842 -0.02063239 -0.09214378 0.067215 -0.04236511 0.021679698 0.105357565 -0.094341494 0.079630286 -0.050608184 -0.15292758 -0.04240775 -0.014840226 -0.021414652 0.10209929 0.030040642 -0.10504097 0.04635888 -0.009228807 0.07287394 0.044385664 -0.16016021 -0.033976577
labeled 0.031102777 0.039462022 -0.0019319826 0.07051934 -0.05712647 0.052051853 -0.06866924 0.12980062 -0.14973444 -0.009776306 -0.19493274 0.05228029 0.02471507 0.056062672 -0.0423462 -0.10964496 -0.01588478 -0.11983606 -0.062313255 -0.079803094 -0.104193084 0.086845055 0.1037877 0.13928413 0.12117079 0.049048122 -0.17343125 -0.012426035 -0.12088023 -0.0485414 -0.061993603 0.020342944 -0.006835703 -0.046524785 -0.004487262 -0.08644783 0.0690306 -0.13966012 -0.012662763 0.10781301 0.027877914 -0.01056816 0.23168704 -0.058936547 -0.057472643 0.007845133 -0.024135198 0.11130215 0.18338582 -0.0030027719 -0.0258154 -0.077115044 -0.05230433 0.026994111 0.049513064 -0.014094396 0.008599794 0.09376913 -0.06816401 0.077721745 -0.004465624 0.011496696 -0.07954183 0.02502296 0.026630396 -0.011947074 -0.022864878 -0.09917473 -0.08210108 -0.07874097 0.0091953315 -0.094145335 0.031466402 -0.03576918 0.008100821 -0.06545749 0.052346285 -0.052837815 -0.009576018 -0.08780898 0.045385018 -0.035442587 0.016649129 0.09616769 -0.08362688 0.07698961 -0.045279585 -0.15522663 -0.03767868 -0.0115499785 -0.025468 0.080380864 0.026122708 -0.086938255 0.051998783 -0.015334035 0.07308179 0.030259078 -0.14979483 -0.044570144
requires 0.050422467 0.050715078 0.0112954 0.057784524 -0.082001425 0.06349807 -0.07526266 0.1278467 -0.16289459 -0.015620161 -0.21467708 0.04535836 0.025097948 0.06645028 -0.052775048 -0.12449595 -0.01571248 -0.119161785 -0.069305226 -0.07278837 -0.12400771 0.082137525 0.107566215 0.13378271 0.14392227 0.051048927 -0.18430397 -0.013002598 -0.123732 -0.0632378 -0.063210204 0.007924025 0.0014502055 -0.056946278 -0.008599424 -0.08372499 0.070240185 -0.14982964 -0.007958049 0.11801297 0.04257316 -0.007961711 0.24319622 -0.067349546 -0.04732016 -0.0031622285 -0.020700762 0.10716991 0.19408654 -0.017940566 -0.025536062 -0.099342205 -0.0758214 0.030671667 0.06414027 -0.006792468 0.0027616383 0.09104718 -0.06779578 0.080868885 0.0032388754 0.01593664 -0.093940794 0.026217852 0.03421618 -0.0054448606 -0.02809673 -0.10665307 -0.10211895 -0.078209266 0.0018581118 -0.10638012 0.041019887 -0.030486308 0.013127122 -0.062363032 0.060284056 -0.07096891 -0.027835429 -0.10425899 0.06700779 -0.03720433 0.028838692 0.0992636 -0.10831432 0.08294842 -0.04965601 -0.16559848 -0.059378132 -0.00094592874 -0.017035944 0.10447352 0.033331003 -0.10406179 0.05007685 -0.0030796642 0.07631097 0.03369762 -0.15575252 -0.030166062
supervised 0.038018383 0.054374255 0.0031286294 0.04999071 -0.056939177 0.05520031 -0.056329776 0.132115 -0.15297839 -0.007789017 -0.19368827 0.05018748 0.012183298 0.061517816 -0.0396714 -0.112220965 -0.02113912 -0.104999326 -0.07458217 -0.07093085 -0.09541281 0.08562905 0.096835665 0.1252171 0.13175374 0.040122975 -0.16219984 -0.020133309 -0.11234447 -0.04586494 -0.061471753 0.004197615 -0.00064625475 -0.048954904 -0.007708398 -0.0717583 0.0695563 -0.13844968 -0.0103918575 0.09878862 0.03390421 -0.011291382 0.227288 -0.04569694 -0.059260275 0.0033456914 -0.033326678 0.09773214 0.18038175 -0.016768174 -0.030620204 -0.08773238 -0.056959577 0.030381445 0.059222084 -1.8559418e-05 0.0060648173 0.096910454 -0.066050634 0.06837361 0.011087744 0.019329261 -0.07650907 0.01880272 0.022221114 -0.0031227644 -0.020196617 -0.107578926 -0.08508403 -0.0704945 0.010449012 -0.07867589 0.023383118 -0.032155834 0.0014316059 -0.054238666 0.05346208 -0.048930153 -0.018049954 -0.092654966 0.05312545 -0.038060468 0.027092572 0.094225444 -0.08415637 0.07143743 -0.040995657 -0.15042919 -0.047319844 -0.007960327 -0.00974183 0.0914664 0.023916908 -0.093248986 0.04153853 -0.014659138 0.058206875 0.04778693 -0.13182001 -0.03494733
tone 0.045453582 0.07427032 -0.0069351615 0.08142213 -0.094131954 0.089043975 -0.09605014 0.1830231 -0.22486214 -0.03999587 -0.2835938 0.06966078 0.027368179 0.097219296 -0.07460625 -0.15666687 -0.017681323 -0.17980361 -0.10553233 -0.110348284 -0.16782962 0.11537323 0.1484255 0.17512836 0.18927085 0.04247547 -0.24696423 -0.018937912 -0.16778208 -0.0732489 -0.10018199 0.023175264 -4.7592483e-05 -0.09153104 0.0028446203 -0.12708692 0.11615789 -0.20355557 -0.02523526 0.12906481 0.038361058 -0.008615103 0.32256672 -0.10153669 -0.07724381 -0.022839172 -0.041938268 0.13201368 0.24307151 -0.01752154 -0.042934455 -0.12046778 -0.07672456 0.055769995 0.06720729 -0.02076033 0.018674647 0.131763 -0.088236004 0.111552835 -0.016827332 0.0020853742 -0.115160726 0.030988976 0.052054692 -0.016851196 -0.035654396 -0.14843385 -0.1196931 -0.114608444 0.005694521 -0.1157724 0.054171346 -0.023647575 0.0061039045 -0.0978015 0.085758924 -0.089385286 -0.033094417 -0.11060771 0.09163262 -0.0423486 0.03778019 0.13794306 -0.14631923 0.11843144 -0.05198815 -0.20058401 -0.06083091 0.0028665934 -0.026121007 0.11577677 0.04540132 -0.13541213 0.07273813 -0.008459505 0.09650603 0.049806003 -0.19350691 -0.058902845
emotional 0.037815202 0.073201984 -0.00445722 0.0691195 -0.104028635 0.07332388 -0.095532194 0.17876679 -0.20686923 -0.034003064 -0.27576888 0.0594084 0.015687764 0.1016006 -0.07010687 -0.14187719 -0.02288599 -0.1718567 -0.099766105 -0.11752134 -0.14648491 0.1279512 0.15018208 0.16715492 0.18564689 0.046596996 -0.23799565 -0.024871055 -0.16154508 -0.06993597 -0.10579416 0.03131632 0.008749194 -0.08199954 0.014325239 -0.10076138 0.11544365 -0.20042524 -0.011991427 0.12542348 0.045426756 -0.0034026445 0.29312298 -0.08957696 -0.07785458 -0.016039442 -0.03993631 0.13862367 0.24134406 -0.01818805 -0.040064543 -0.11173079 -0.07081502 0.056716055 0.06798445 -0.024437107 0.014833832 0.1212966 -0.085891835 0.09437782 -0.010439755 0.009255464 -0.110391416 0.023322465 0.048487365 -0.010082673 -0.041276332 -0.14563572 -0.11866151 -0.09603538 0.011901403 -0.119308 0.045409035 -0.035369135 0.0077499007 -0.08749926 0.06788439 -0.083750226 -0.025799818 -0.11164303 0.08056062 -0.03858847 0.0217852 0.13164912 -0.14893486 0.111175165 -0.048474725 -0.20451759 -0.07488735 0.0003307665 -0.030495748 0.11591644 0.05049049 -0.13593371 0.06074186 -0.00965343 0.09195959 0.048030525 -0.1795024 -0.0579628
determines 0.051577117 0.07114646 -0.0007976762 0.07351383 -0.102585115 0.08230485 -0.079880185 0.18459556 -0.2170763 -0.028610347 -0.27978614 0.06620832 0.021815248 0.09842701 -0.06195887 -0.13455933 -0.013464497 -0.17202355 -0.0954287 -0.11775112 -0.16282381 0.12249509 0.14970839 0.17714131 0.1905472 0.04044848 -0.23556681 -0.013799735 -0.16964549 -0.07935263 -0.10782742 0.031591352 0.006181257 -0.090405636 -0.0009461125 -0.12436456 0.1183428 -0.20866667 -0.014246586 0.122521 0.038311068 -0.017742842 0.31388685 -0.100527495 -0.07450037 -0.017225778 -0.044608857 0.12784971 0.24788381 -0.019826656 -0.03923698 -0.11753855 -0.070356466 0.043136124 0.07203274 -0.019992884 0.006351361 0.11924711 -0.077322304 0.09664413 -0.012982568 0.0059119933 -0.118495174 0.033704154 0.047675587 -0.0034147117 -0.0464201 -0.133653 -0.13182944 -0.102208674 0.02113906 -0.11735539 0.05462375 -0.03593085 0.00041834213 -0.08082132 0.063514635 -0.08468561 -0.02112979 -0.10704018 0.07957667 -0.02647989 0.023331286 0.12709385 -0.14956969 0.11849079 -0.04055982 -0.19706169 -0.06373972 -0.010112362 -0.039693397 0.13108166 0.047429424 -0.13625579 0.07090158 0.0005783774 0.09076203 0.063169785 -0.20243278 -0.06210775
analysis 0.043828644 0.0714242 -0.007945197 0.07273117 -0.095524795 0.08615615 -0.085244976 0.18953705 -0.21496484 -0.028761402 -0.2827232 0.07107569 0.02144743 0.086718746 -0.06384106 -0.15719579 -0.003294885 -0.17789853 -0.09248248 -0.12545058 -0.1592041 0.12547226 0.1475766 0.17708158 0.20353028 0.04796153 -0.2346065 -0.018772239 -0.18291305 -0.06552063 -0.110557735 0.018879661 0.009796867 -0.07936782 0.014260957 -0.12222733 0.11746431 -0.21197139 -0.01751664 0.13321559 0.033613447 -0.014260711 0.31896767 -0.098445095 -0.079671696 -0.013151417 -0.051705997 0.13122979 0.25605458 -0.02048481 -0.037158564 -0.11703267 -0.08132547 0.046891652 0.07761506 -0.010202382 0.021934938 0.1262983 -0.07835453 0.12136152 -0.021153318 0.017247004 -0.11767584 0.040425293 0.049228493 -0.0065324027 -0.051501974 -0.15747105 -0.116616525 -0.107746184 0.014441626 -0.13189651 0.04245065 -0.026022013 0.005094191 -0.086358026 0.07220169 -0.09646348 -0.035170708 -0.10809812 0.0921123 -0.04686599 0.030919475 0.1342893 -0.15021579 0.12186653 -0.0540446 -0.21997114 -0.07531663 -0.003259947 -0.03819402 0.13377918 0.036806647 -0.14484 0.06513084 -0.009666948 0.09341651 0.052591335 -0.21145284 -0.05163692
sentiment 0.043004338 0.053858016 0.000377303 0.08677269 -0.0986544 0.08106016 -0.08997839 0.16104488 -0.20783672 -0.03280592 -0.2679944 0.060168356 0.018850172 0.09353307 -0.06426438 -0.13980845 -0.01393854 -0.16768171 -0.08829087 -0.11366256 -0.14299472 0.12740101 0.14149883 0.16809861 0.17247447 0.05487014 -0.22908314 -0.015438798 -0.15179649 -0.058210284 -0.08517888 0.013352638 0.0096972 -0.08875241 0.005292003 -0.100818105 0.10725082 -0.18199144 -0.023505276 0.120520964 0.03712702 -0.014548905 0.29676214 -0.08700379 -0.063893095 -0.011623095 -0.04149012 0.12196228 0.23003107 -0.008135664 -0.028771296 -0.11517017 -0.076815724 0.04939198 0.07509108 -0.025664186 0.011543192 0.11244688 -0.08464532 0.1053011 -0.015643723 0.008416883 -0.10726801 0.030566752 0.041067578 -0.022284491 -0.033446986 -0.12866528 -0.10904627 -0.0950036 0.0117089385 -0.10555268 0.044118542 -0.039364956 0.016779885 -0.08553896 0.079264544 -0.087225705 -0.017452646 -0.108170226 0.076337874 -0.039289955 0.036941648 0.1124167 -0.1358181 0.10364092 -0.042494323 -0.19885814 -0.06264661 -0.009427804 -0.03561089 0.11061329 0.049043115 -0.12826072 0.05604968 -0.0073419437 0.08571571 0.0512816 -0.19016916 -0.05375563
important 0.056635898 0.05535815 0.02092754 0.08889224 -0.0975365 0.059250597 -0.085187405 0.15138473 -0.18903418 -0.013356948 -0.24159782 0.049629927 0.011315031 0.09252817 -0.051911183 -0.121999174 -0.013101661 -0.1534351 -0.07874434 -0.09391437 -0.12450714 0.114637844 0.12730417 0.17097563 0.16812506 0.041355357 -0.22101375 -0.024128715 -0.15274552 -0.06298874 -0.09659909 0.006661429 0.0041940236 -0.06892049 -0.012711201 -0.102680705 0.080267966 -0.17434078 -0.010033081 0.12942053 0.044217136 -0.008035461 0.2868629 -0.074236624 -0.06429811 0.000749656 -0.027114814 0.13505091 0.20816752 -0.0058594015 -0.04459574 -0.114221685 -0.0905363 0.042231046 0.080308974 -0.020865373 -0.0028195044 0.12900685 -0.06262423 0.099680364 0.0028130275 0.016304264 -0.120409645 0.01684651 0.047319613 -0.01631652 -0.032588597 -0.124852896 -0.11851407 -0.10337959 0.01864068 -0.11417277 0.036158666 -0.018008016 0.019686237 -0.0699964 0.0543449 -0.090919435 -0.03142609 -0.11447855 0.06102501 -0.016505202 0.020740343 0.118770786 -0.12106661 0.102905996 -0.04468656 -0.18670736 -0.062840246 -0.014332289 -0.0134894205 0.09678457 0.036437355 -0.10045371 0.05238437 -0.024206588 0.0948365 0.041078888 -0.16307396 -0.04202892
an 0.06460038 0.06324407 0.005483395 0.08931691 -0.09383309 0.06134411 -0.086728066 0.15099339 -0.1778991 -0.025834128 -0.2492864 0.045878787 0.027404696 0.08451987 -0.059318468 -0.13219866 -0.014351562 -0.1418501 -0.080811195 -0.08391375 -0.13336813 0.1223717 0.13414508 0.15272744 0.16131303 0.040649302 -0.22343619 -0.021303663 -0.14649779 -0.06791911 -0.093697205 0.010367624 -0.005703077 -0.082706094 -0.012666776 -0.097505815 0.09629811 -0.18060014 -0.014014385 0.13291508 0.047886226 -0.02268516 0.29105943 -0.08780095 -0.07413637 -0.00778401 -0.025523929 0.11950266 0.20681585 -0.017834965 -0.037675455 -0.0940719 -0.086631745 0.035316348 0.06930059 -0.021047685 -0.002614702 0.12294092 -0.073074594 0.09654081 0.010425712 0.020081492 -0.118630804 0.020892402 0.035461407 -0.006535554 -0.03971651 -0.13814077 -0.110406466 -0.099697724 0.006775854 -0.101245254 0.029434573 -0.020111524 0.022532163 -0.07956082 0.06651638 -0.08249407 -0.023770984 -0.12128763 0.06523406 -0.03533549 0.032210894 0.10620498 -0.12399337 0.10701323 -0.028303573 -0.18835503 -0.07507326 -0.003553892 -0.029615002 0.09992449 0.056389417 -0.098670535 0.05509172 -0.008157074 0.07857647 0.043478686 -0.17818208 -0.05772609
classification 0.047946468 0.036260992 0.0073330263 0.07206347 -0.06628181 0.045848265 -0.06578706 0.124047205 -0.1466295 -0.020363038 -0.19765753 0.047859397 0.023372734 0.06715767 -0.058054738 -0.10515524 -0.0010317535 -0.1075062 -0.07012744 -0.08329361 -0.108232535 0.09649271 0.11222264 0.12084829 0.12700447 0.034487523 -0.17783737 -0.0042721457 -0.13039535 -0.048339248 -0.061818294 0.016308542 0.0043954193 -0.06394026 0.004582 -0.084198244 0.0638033 -0.1479416 -0.017257035 0.09898361 0.027768588 -0.009879413 0.22532368 -0.065888345 -0.048091087 -0.0082059335 -0.018655105 0.096882395 0.17702569 -0.013923718 -0.038575344 -0.091650784 -0.05938188 0.041589078 0.053970218 -0.010019056 0.005547013 0.08944209 -0.057698075 0.081813164 0.010615744 0.020386826 -0.09724324 0.014764015 0.029622955 -0.01820564 -0.028610742 -0.1153055 -0.09949634 -0.08876072 0.007480898 -0.080128826 0.023657253 -0.0124720335 0.0064715655 -0.07067212 0.047576927 -0.062078938 -0.030440366 -0.09728286 0.06256313 -0.02157358 0.019568741 0.0981387 -0.09273117 0.07942026 -0.031700935 -0.1580376 -0.056758348 -0.005040659 -0.022589331 0.09811458 0.04442979 -0.091787696 0.03900061 -0.017603554 0.06981049 0.034296997 -0.14271894 -0.036001533
for 0.04732072 0.053178903 -0.0020926858 0.08712741 -0.08122708 0.07471625 -0.078017436 0.16095483 -0.18674469 -0.021214288 -0.24028456 0.040611546 0.021094935 0.081484504 -0.054872237 -0.13192566 -0.0035975624 -0.1475518 -0.07839982 -0.08044942 -0.12834615 0.11344778 0.13179214 0.17186192 0.16230321 0.03881195 -0.21132714 -0.014192795 -0.14126125 -0.06633786 -0.09234613 0.009106495 -0.0058049406 -0.078967355 0.010829689 -0.100034095 0.08204825 -0.18363316 -0.013532938 0.1314207 0.04578409 -0.020598352 0.26489222 -0.07857451 -0.0638629 0.0018928302 -0.018639782 0.1175772 0.19937609 -0.0046357824 -0.024259493 -0.09828181 -0.085131936 0.030244756 0.062757075 -0.009156037 0.014419633 0.11981581 -0.07330565 0.1038317 -0.006955693 0.020814504 -0.09132767 0.032268375 0.04489573 -0.013158776 -0.03553458 -0.13599607 -0.10560869 -0.08564605 0.010954764 -0.096345305 0.027374284 -0.028112302 0.005221719 -0.07206354 0.05974375 -0.08311853 -0.020659171 -0.09840442 0.06578009 -0.016497767 0.026299516 0.10497389 -0.13232243 0.08798587 -0.03569744 -0.17620246 -0.062993 -0.0064024027 -0.009303488 0.11169079 0.03025773 -0.11883835 0.052903306 -0.018032627 0.09561022 0.054003645 -0.159938 -0.04016138
popular 0.04491567 0.056679707 0.006028907 0.091298066 -0.095677204 0.0753295 -0.085779816 0.16761927 -0.18859015 -0.027303727 -0.23856957 0.048286214 0.012130403 0.08636143 -0.05743871 -0.14267215 -0.019569969 -0.15673754 -0.07614444 -0.09427867 -0.12555757 0.12446713 0.131574 0.17455804 0.1668884 0.033714436 -0.2194337 -0.014103597 -0.1651318 -0.075272 -0.10477455 0.022364313 0.0036780853 -0.07095128 -0.0016446968 -0.10437536 0.10238776 -0.18298145 -0.02590303 0.12630226 0.047186553 -0.01617238 0.29566854 -0.069294155 -0.08281861 0.0012679612 -0.028963044 0.1336403 0.21355785 -0.016656257 -0.038358994 -0.11759701 -0.075529955 0.032855444 0.07445617 -0.0202241 0.0011290496 0.12253833 -0.063327014 0.11318392 0.00035814513 0.014578012 -0.09586635 0.02366529 0.04867613 -0.02347007 -0.04260031 -0.1432242 -0.13069372 -0.088393085 0.025171753 -0.11410381 0.04566576 -0.025014555 0.019032704 -0.07424767 0.06660455 -0.095190324 -0.017368382 -0.10833371 0.08080019 -0.018000731 0.02133309 0.11684877 -0.13593668 0.0899717 -0.03169041 -0.17851955 -0.05421037 0.0012543134 -0.012881723 0.11678099 0.05287946 -0.113979734 0.059930306 -0.023666313 0.09825268 0.06144139 -0.17118973 -0.04372088
python 0.038609702 0.04125534 0.005781217 0.08569757 -0.079432316 0.07795883 -0.07738396 0.15998472 -0.18058531 -0.033383362 -0.2287524 0.03580478 0.023964066 0.09123908 -0.05701654 -0.118278936 -0.01961827 -0.14406213 -0.07434521 -0.08670366 -0.12061481 0.110064656 0.12805301 0.15964635 0.1696039 0.032995112 -0.21141653 -0.023627829 -0.14689054 -0.07130641 -0.093205065 0.024883293 -0.0057251947 -0.0815857 -0.009185203 -0.10569298 0.09676882 -0.17507674 -0.010197174 0.11708471 0.036738124 -0.019511623 0.27336586 -0.0717831 -0.0635655 -0.0067074928 -0.019244352 0.12829605 0.20431364 -0.003956696 -0.03545476 -0.10999438 -0.068013325 0.047953382 0.063005015 -0.0052043884 0.016808474 0.12626307 -0.07380751 0.100698635 0.0026155482 0.015498389 -0.098369814 0.03072742 0.03880902 -0.009451729 -0.034442138 -0.14174964 -0.1231055 -0.081058845 0.024515495 -0.10405268 0.029790452 -0.02323065 0.003094348 -0.079355255 0.057303887 -0.09265731 -0.019008314 -0.10579021 0.06469003 -0.026221655 0.015502301 0.11275368 -0.122273736 0.092552826 -0.03225374 -0.18350145 -0.068506755 -0.005761958 -0.0069010607 0.10845346 0.029776005 -0.10031808 0.053216234 -0.022950387 0.09122953 0.048356865 -0.15474293 -0.046554092
domain 0.056592654 0.063439645 -0.0027211902 0.0967397 -0.11205447 0.08459416 -0.080132626 0.19136608 -0.22429882 -0.033580028 -0.279953 0.06331556 0.04018278 0.084842086 -0.07473912 -0.15703931 -0.022465501 -0.17175113 -0.08700406 -0.11903875 -0.14830646 0.13868313 0.1449057 0.19552557 0.18259159 0.05548254 -0.24400629 -0.016770514 -0.17534186 -0.07757464 -0.10264266 0.019752858 -0.010913126 -0.100022554 0.005214292 -0.12367341 0.10311221 -0.20091093 -0.036322508 0.16250151 0.03952954 -0.02367796 0.330564 -0.079043955 -0.08000207 -0.0019201628 -0.034138717 0.15257224 0.2438938 -0.015075619 -0.05261934 -0.11444455 -0.0925906 0.051897172 0.09516289 -0.004284771 0.0124989785 0.12206835 -0.09071099 0.123684086 0.0036233314 -0.0009443993 -0.12311654 0.038493283 0.037574753 -0.026086751 -0.039356586 -0.16104905 -0.1325648 -0.13104352 0.021421626 -0.12876445 0.04986445 -0.044782467 0.007387298 -0.09572481 0.060689606 -0.08776988 -0.043711126 -0.12838818 0.088328004 -0.021990974 0.043620326 0.14153259 -0.13110681 0.12081339 -0.045176215 -0.21269204 -0.065234296 -0.010939228 -0.020839894 0.143067 0.04782682 -0.13623741 0.06514469 -0.021371877 0.11583293 0.07450012 -0.19298027 -0.03741206
and 0.05532332 0.06291837 0.010337032 0.10541529 -0.10741571 0.08378175 -0.08414506 0.19315113 -0.22769482 -0.040757205 -0.29826653 0.0534799 0.028502785 0.101150125 -0.06425302 -0.16215833 -0.01093915 -0.17217539 -0.10811184 -0.11486617 -0.16499458 0.14992337 0.15777624 0.2028816 0.19699098 0.050350197 -0.24889888 -0.010888668 -0.19304425 -0.08678072 -0.11075356 0.023091406 -0.016281322 -0.098989666 -0.003984173 -0.11070967 0.107643396 -0.20238926 -0.017954018 0.16588558 0.040040385 -0.0054823672 0.34707305 -0.07331894 -0.08997145 -0.015301973 -0.03264726 0.15828402 0.26203617 -0.014933637 -0.055977274 -0.12324797 -0.08597936 0.051528867 0.08700775 -0.01625603 -0.0074835746 0.12969784 -0.08089258 0.11319426 0.018838534 0.000708772 -0.12058787 0.031228798 0.049275745 -0.0076871053 -0.044558838 -0.15787174 -0.12854424 -0.12534805 0.013119304 -0.13323851 0.036394767 -0.041199517 0.01613153 -0.09894261 0.063163586 -0.082550675 -0.03966671 -0.13618635 0.088826105 -0.021612652 0.049202427 0.14219789 -0.1306192 0.12497801 -0.05963416 -0.20146318 -0.081400566 -0.012240339 -0.019663667 0.14795211 0.044173926 -0.123351954 0.07966195 -0.012726899 0.09942921 0.069041826 -0.20807615 -0.040547356
statistics 0.046333823 0.07440945 -0.0036472238 0.098734945 -0.1110315 0.08966043 -0.08856191 0.18933897 -0.23311794 -0.030055018 -0.27562436 0.06896011 0.02311019 0.09440202 -0.07209644 -0.15199515 -0.015931256 -0.1807691 -0.09059093 -0.11569676 -0.16128644 0.14605263 0.14926165 0.1907699 0.20096838 0.047768258 -0.23916326 -0.020701924 -0.18759216 -0.08034543 -0.099797115 0.02798231 -0.013547775 -0.083376236 0.002536598 -0.1252921 0.11069847 -0.2060413 -0.030502724 0.1524636 0.038644303 -0.011078275 0.33382174 -0.084146656 -0.08933783 -0.010190923 -0.03345954 0.14518552 0.24467117 -0.015319701 -0.052469693 -0.11905433 -0.09668834 0.047593623 0.09523622 -0.0051621506 0.0067417705 0.13726838 -0.09186243 0.11365421 0.011378947 0.016240178 -0.118675224 0.038348377 0.036010254 -0.02389827 -0.05377435 -0.15554576 -0.12678424 -0.12801914 0.025979958 -0.12467133 0.03902761 -0.04616914 0.018711621 -0.08730125 0.060175642 -0.092603914 -0.03681392 -0.12643982 0.07524624 -0.017163925 0.03789758 0.1316566 -0.14760333 0.1278244 -0.0592009 -0.197573 -0.07589927 -0.00017441253 -0.033921454 0.13005489 0.05335313 -0.12034309 0.06937195 -0.02807192 0.116111666 0.06307084 -0.1881796 -0.03893108
combines 0.06017674 0.064719036 0.006605777 0.09601623 -0.10999086 0.07707284 -0.07782853 0.18257773 -0.21216646 -0.024495194 -0.2802855 0.056650333 0.0279887 0.099430226 -0.07128825 -0.15175022 -0.018701112 -0.17081018 -0.091221415 -0.10195686 -0.14420564 0.14119384 0.12997982 0.17905101 0.18060005 0.042944163 -0.22284788 -0.023545075 -0.18249641 -0.06989136 -0.08651367 0.015301159 -0.014191285 -0.08616715 -0.0004983026 -0.10044262 0.09820596 -0.20680483 -0.027854318 0.14855762 0.041457612 -0.011311504 0.32489613 -0.07137034 -0.08570747 -0.009992408 -0.028940663 0.13926204 0.23712012 -0.021775948 -0.04992313 -0.1090262 -0.07805616 0.052840598 0.08120963 -0.018515924 -0.0035078693 0.12430462 -0.079886004 0.1188914 0.016467186 0.0001626821 -0.11070299 0.026385948 0.032848697 -0.014632003 -0.051715627 -0.152674 -0.12398914 -0.12139778 0.021228382 -0.12379958 0.045354586 -0.045683723 0.0045229765 -0.0854141 0.05916666 -0.07988853 -0.041891277 -0.11971069 0.08890931 -0.03503574 0.034428112 0.13577841 -0.13109046 0.10698849 -0.057940904 -0.1909257 -0.062229548 -0.010626376 -0.025928589 0.13616349 0.039357092 -0.12715729 0.070840806 -0.025038121 0.10825566 0.061763886 -0.17896079 -0.054477654
science 0.06405598 0.057596628 -0.0066909017 0.10317076 -0.1038985 0.08969548 -0.09616592 0.17411646 -0.22099799 -0.022315813 -0.28531304 0.06708289 0.03755007 0.104453534 -0.06977377 -0.14848155 -0.016176866 -0.1685487 -0.096264884 -0.109350525 -0.15942122 0.13905436 0.1507639 0.20065197 0.1948625 0.042164866 -0.23900644 -0.021203386 -0.18954195 -0.089279294 -0.09907656 0.032029033 -0.008516713 -0.09190495 -0.009176158 -0.11205615 0.09654795 -0.19864687 -0.02051821 0.16147026 0.038725477 -0.02001385 0.32593814 -0.07660507 -0.08880291 -0.0020138666 -0.041696563 0.13606663 0.24361879 -0.010468103 -0.04315536 -0.12220415 -0.08543073 0.052300025 0.08876775 -0.011661721 -0.005148986 0.12694848 -0.08241094 0.10719377 0.004521719 0.002692454 -0.11413505 0.022359127 0.032979455 -0.014445161 -0.050559774 -0.15854478 -0.13446866 -0.12666993 0.024780063 -0.12402692 0.03645417 -0.037325885 0.01746756 -0.088523716 0.07031306 -0.07983168 -0.035664197 -0.1290429 0.08304923 -0.020007828 0.04521765 0.12562072 -0.1397954 0.124278575 -0.05854963 -0.19634393 -0.06669893 0.0007190987 -0.035927895 0.13722548 0.048675224 -0.124378145 0.075222805 -0.020945588 0.107260525 0.06871654 -0.19255945 -0.042395424
brain 0.05319833 0.071144216 -0.0044323145 0.08950352 -0.09176849 0.05759065 -0.08615717 0.17681645 -0.1985389 -0.033653803 -0.26869118 0.05296901 0.026593387 0.083322525 -0.06449839 -0.14207265 -0.0110649215 -0.1664205 -0.085448146 -0.11157338 -0.16427363 0.104716286 0.13058048 0.18864818 0.17416832 0.05431912 -0.23103407 -0.026053414 -0.16988473 -0.0879695 -0.089970894 0.018858552 0.006685061 -0.08612223 0.0075636227 -0.11031682 0.091197066 -0.20214902 -0.034328144 0.13606998 0.05575145 -0.011452207 0.30440125 -0.07750654 -0.06382538 -0.020252137 -0.029722922 0.14993243 0.24846822 -0.007219085 -0.025923058 -0.10436188 -0.102778666 0.04625249 0.07232617 -0.01578455 0.008070066 0.1394221 -0.0744168 0.11028402 -0.015238787 0.014650492 -0.10649112 0.01776011 0.04165775 -0.022226842 -0.051584266 -0.13204414 -0.1153516 -0.10194624 0.013876915 -0.11940622 0.058570664 -0.035667334 0.020522963 -0.08650736 0.07489197 -0.10188011 -0.026322925 -0.12745793 0.07010692 -0.0216824 0.038566772 0.13156547 -0.13607487 0.106628135 -0.03175903 -0.203691 -0.0607865 -0.014470603 -0.02894138 0.122210905 0.058000643 -0.12785731 0.056756966 -0.028698616 0.08741862 0.075227246 -0.18506068 -0.05539713
neurons 0.06300723 0.061731767 0.0007692161 0.09255019 -0.10520879 0.07709738 -0.09185196 0.1818753 -0.2120508 -0.021692153 -0.28373718 0.071833014 0.024725305 0.095495194 -0.06129842 -0.15661153 -0.02479528 -0.16388929 -0.11065222 -0.11220676 -0.1532903 0.119270526 0.14970979 0.19172528 0.1852784 0.05044035 -0.24302745 -0.025111634 -0.18010625 -0.08465076 -0.0867849 0.010036983 0.01422531 -0.08874407 0.004723807 -0.11893845 0.09732045 -0.20439631 -0.033558518 0.12658814 0.059024792 -0.004588892 0.32682863 -0.08740595 -0.079147816 -0.021448504 -0.042444665 0.14219779 0.26117906 -0.026650814 -0.029657213 -0.12188618 -0.108776465 0.0451188 0.07473519 -0.011790312 -0.002344901 0.14224078 -0.07899037 0.10189066 -0.01709885 0.015151366 -0.12791775 0.011311801 0.038711235 -0.02232456 -0.052386988 -0.15136357 -0.12796529 -0.113216825 0.013673162 -0.13570759 0.05084009 -0.051460855 0.02168905 -0.0773005 0.07637744 -0.11433956 -0.02620141 -0.13272098 0.075077824 -0.03596344 0.052961778 0.14999616 -0.14398666 0.11791946 -0.0357301 -0.20743713 -0.07014933 0.0007140847 -0.02440648 0.11821325 0.05055794 -0.11969207 0.054873705 -0.027974108 0.10990648 0.076919556 -0.19910708 -0.05647738
biological 0.056039397 0.06693617 0.005003847 0.11133059 -0.11134727 0.06868324 -0.09830838 0.2091208 -0.22929251 -0.03191778 -0.29660177 0.06873489 0.022305313 0.108888604 -0.07304746 -0.17672253 -0.021472363 -0.17250212 -0.10783385 -0.117321454 -0.17466551 0.13317691 0.1645478 0.1988598 0.20733643 0.058800526 -0.26936123 -0.014368311 -0.19921108 -0.09018256 -0.10538478 0.011681291 0.014035566 -0.098782875 -0.003271792 -0.122307405 0.118354544 -0.23925646 -0.034701124 0.14961542 0.063710794 0.0020008648 0.34482473 -0.10299085 -0.0672362 -0.02015853 -0.05140149 0.16387467 0.27305332 -0.028661761 -0.046886735 -0.123902686 -0.11381585 0.05634621 0.087233834 -0.008491795 0.00060833513 0.14881796 -0.08811145 0.12532574 -0.00800974 0.02606286 -0.12883992 0.015481187 0.055743687 -0.023249488 -0.046812247 -0.15037222 -0.12988774 -0.11770415 0.024030073 -0.14170274 0.061266378 -0.047527093 0.027014703 -0.1031402 0.093745604 -0.11823732 -0.02952949 -0.14495091 0.07967864 -0.020209188 0.053511694 0.14524543 -0.16420825 0.13041851 -0.0307256 -0.23251529 -0.07305149 -0.014841988 -0.023267075 0.13414991 0.048091937 -0.14370827 0.061442148 -0.0164577 0.101169296 0.08879368 -0.2132922 -0.052967228
by 0.068755455 0.05648373 -0.0023128006 0.101042874 -0.106758356 0.06349261 -0.09030422 0.19436927 -0.20661607 -0.027199807 -0.28515485 0.05947415 0.02895199 0.08534404 -0.070002094 -0.16529332 -0.022740593 -0.17396106 -0.0959754 -0.101642154 -0.1705132 0.1257388 0.14841902 0.20141275 0.19860762 0.0455991 -0.23699637 -0.015224726 -0.1861729 -0.088366404 -0.08525828 0.018471159 0.004533312 -0.09020625 0.009684854 -0.12365677 0.094324544 -0.21163325 -0.018597277 0.12697572 0.049539 -0.0077261715 0.31141227 -0.0833184 -0.073512584 -0.020498969 -0.045947686 0.15673408 0.26055875 -0.020143637 -0.038303692 -0.10866882 -0.106766775 0.051923588 0.08582722 -0.0050569214 -0.005728422 0.14574316 -0.07635496 0.119914 -0.015742155 0.023956062 -0.113192834 0.013997815 0.047335513 -0.032363884 -0.04499394 -0.14531969 -0.1337627 -0.121924944 0.022101285 -0.13516048 0.05299297 -0.051675305 0.031316314 -0.08557722 0.08816569 -0.114281885 -0.036130384 -0.12233145 0.08287229 -0.021400735 0.053426653 0.14689791 -0.15212591 0.11071804 -0.028571459 -0.20849226 -0.062119782 -0.008053645 -0.03823942 0.12623446 0.0586989 -0.12658381 0.050164077 -0.027538337 0.1091392 0.08585897 -0.19433507 -0.0629116
inspired 0.059874866 0.068832956 0.009201123 0.09262746 -0.09742764 0.061239675 -0.09201083 0.182367 -0.21288143 -0.033862397 -0.2704471 0.065824576 0.027025158 0.091211796 -0.06729456 -0.1562836 -0.021761395 -0.17145821 -0.09176646 -0.101020716 -0.16292824 0.11038984 0.13524127 0.19236957 0.18248287 0.05726824 -0.23488949 -0.012569757 -0.17041603 -0.0843911 -0.08345494 0.022347137 0.013131703 -0.07420326 -0.0032431844 -0.12390216 0.09898641 -0.20888615 -0.027985368 0.12414194 0.051047422 -0.009735507 0.3025955 -0.07713457 -0.06367845 -0.012144524 -0.04686075 0.14437221 0.23563261 -0.021060752 -0.036859356 -0.11936462 -0.099049404 0.04269408 0.085552156 -0.0011088011 -0.010004706 0.13925123 -0.0726834 0.10436261 -0.009539189 0.026893916 -0.119097546 0.009235221 0.037429694 -0.027548281 -0.049585324 -0.14574657 -0.13055797 -0.09730959 0.009194749 -0.119841576 0.05499335 -0.037462696 0.028896352 -0.093226716 0.07121956 -0.10902416 -0.027400889 -0.11892175 0.08492975 -0.02899507 0.036704287 0.14364435 -0.1347705 0.11616816 -0.03826298 -0.20304528 -0.06973294 -0.004976855 -0.032364305 0.13197753 0.043957092 -0.12520225 0.051232677 -0.01707231 0.10146576 0.081039175 -0.18652079 -0.05815119
today 0.03477802 0.063164964 0.0047964244 0.063376956 -0.07281615 0.06876647 -0.082584746 0.15283735 -0.17667486 -0.023332391 -0.21397446 0.044400204 0.014236597 0.07531659 -0.06518433 -0.13412854 0.00019689089 -0.1438658 -0.07971407 -0.09166217 -0.13676935 0.10202126 0.1242699 0.15081401 0.14932272 0.039623894 -0.20151486 -0.00082728354 -0.14921774 -0.06769525 -0.09106706 0.019637888 0.00437035 -0.070532404 0.0045594345 -0.10459319 0.08036465 -0.16622202 -0.03258846 0.10893721 0.035986733 -0.022365784 0.26418182 -0.058592446 -0.07612819 0.0047975886 -0.026215883 0.12652609 0.1885789 -0.00535914 -0.042771235 -0.089466065 -0.072166026 0.03492675 0.055957377 -0.014189549 -0.005123523 0.117298886 -0.05960281 0.08602607 -0.0069968416 0.011101841 -0.108957864 0.013893641 0.02917623 -0.009020821 -0.03805182 -0.118586555 -0.10233777 -0.08284943 0.013970653 -0.107895054 0.04824961 -0.03127002 0.011210429 -0.07263494 0.061373618 -0.07841904 -0.014666448 -0.0918666 0.059142925 -0.022039142 0.019681979 0.11724803 -0.12534222 0.10329886 -0.043004747 -0.15980352 -0.07100546 -0.012230735 -0.0044942945 0.09272601 0.030430462 -0.11346817 0.0417352 -0.013007918 0.08230034 0.04118884 -0.17392236 -0.048639596
industries 0.05083972 0.065385565 -0.0012624776 0.066117 -0.09179453 0.07802088 -0.070106626 0.15571998 -0.18820344 -0.024891056 -0.23785779 0.04829256 0.018082025 0.07104242 -0.05676633 -0.12633586 -0.0076283137 -0.14715767 -0.09247897 -0.078708 -0.13996312 0.09884256 0.1244063 0.1505389 0.1591161 0.051503077 -0.19812046 -0.004930764 -0.1591422 -0.06846 -0.0847279 0.026283266 -0.012046334 -0.0785103 0.0063818833 -0.09586858 0.09674035 -0.17794824 -0.013218096 0.1091942 0.042499702 -0.019523822 0.2788263 -0.072331265 -0.06308111 -0.0065270425 -0.021727154 0.12395468 0.19234455 -0.018128783 -0.030394746 -0.106551886 -0.08158 0.04115389 0.062016264 -0.024581125 0.006006298 0.12032288 -0.06290714 0.10225572 -0.009373109 0.014986411 -0.11113876 0.03191882 0.036493227 -0.021597987 -0.029190928 -0.1370002 -0.11636816 -0.085745886 0.014155922 -0.10073189 0.041398652 -0.018753812 0.013383318 -0.083441 0.04900088 -0.07212464 -0.03067191 -0.1059579 0.05322889 -0.035102013 0.03006062 0.10377701 -0.12215589 0.109667495 -0.0509652 -0.18085703 -0.06894963 -0.0042693485 -0.015677713 0.10857232 0.026586195 -0.103374444 0.037759367 -0.006070128 0.074861184 0.054658532 -0.17584662 -0.04958175
many 0.03875342 0.047499523 -0.0023942797 0.07802987 -0.08915722 0.06664184 -0.06973394 0.14773992 -0.19223632 -0.03472109 -0.23728761 0.04295557 0.006787704 0.06727238 -0.054933816 -0.1447394 -0.00094820594 -0.13795239 -0.08617385 -0.09650811 -0.1351073 0.1182114 0.11845599 0.17128621 0.177038 0.040647045 -0.21792762 -0.0039191404 -0.1630065 -0.068436295 -0.097524785 0.02806547 -0.010408107 -0.08247159 -0.0074454024 -0.11055709 0.0944599 -0.18964206 -0.018444272 0.120197706 0.036904585 -0.0030979435 0.2843229 -0.068322495 -0.07975263 0.0013595198 -0.028459528 0.13974304 0.21015759 -0.008882961 -0.038670897 -0.112696886 -0.087370224 0.049154945 0.075414084 -0.020945495 0.007845231 0.11072011 -0.07854186 0.09658048 0.0015957273 0.026410764 -0.10366733 0.019241972 0.044649452 -0.012692297 -0.02889276 -0.1399045 -0.12614729 -0.10362563 0.024061795 -0.11907434 0.050620217 -0.020730948 0.0044464096 -0.070187554 0.052752327 -0.090481214 -0.020793615 -0.11219565 0.060415845 -0.038947616 0.03137677 0.10525927 -0.13272867 0.10368747 -0.04309586 -0.17508791 -0.07400119 -0.0087418165 -0.00827522 0.107054465 0.032632522 -0.1106022 0.04999463 -0.020034138 0.087614834 0.04068811 -0.17651828 -0.035965547
transforming 0.044246476 0.062541194 0.0014290784 0.08457339 -0.07673002 0.07879937 -0.071076006 0.15740968 -0.18879819 -0.016941385 -0.2264375 0.04334302 0.0071578464 0.0658363 -0.06786516 -0.1442943 -0.013444989 -0.15314333 -0.07335336 -0.10048387 -0.13678838 0.10325859 0.11781955 0.16499583 0.17602432 0.054991577 -0.19626404 -0.006489127 -0.14940445 -0.077242486 -0.07910046 0.028458046 -0.010990703 -0.07533051 0.00399566 -0.11358313 0.09912392 -0.18435833 -0.03484418 0.11300247 0.048043836 -0.017457547 0.27997202 -0.063891366 -0.082105935 0.004154489 -0.032488324 0.13247621 0.20011163 -0.019093888 -0.029687054 -0.096232906 -0.06902647 0.04460225 0.06930127 -0.02459876 -0.0008621966 0.123672806 -0.071879864 0.09595692 -0.0077279923 0.01626827 -0.114515595 0.01571859 0.029683886 -0.013223411 -0.038262483 -0.14005218 -0.11494213 -0.10242103 0.0031816135 -0.11813957 0.04022789 -0.016501008 0.0075440067 -0.08101739 0.053520538 -0.08454898 -0.017991003 -0.108591095 0.06784032 -0.024001688 0.037175093 0.11595466 -0.12073165 0.109922186 -0.036673058 -0.18082075 -0.07543892 -0.019939264 -0.004598538 0.108205624 0.03241392 -0.11446935 0.042998895 -0.0046475637 0.08902184 0.055101648 -0.1809383 -0.045380857
dog 0.0468775 0.0737685 0.014431158 0.089206405 -0.100361794 0.058467302 -0.08092561 0.17553034 -0.21557201 -0.032187544 -0.28082716 0.06791944 0.017261105 0.0840929 -0.063880526 -0.14860278 -0.021634575 -0.1649383 -0.110380426 -0.12305272 -0.16929932 0.11753037 0.1359167 0.19292262 0.17852049 0.041954637 -0.24775699 -0.019174093 -0.1634228 -0.07534827 -0.10826668 0.015978036 -0.001969746 -0.08541821 0.008830216 -0.11177507 0.09588642 -0.19756544 -0.026431719 0.13201225 0.05598285 0.0020593577 0.31300324 -0.084696405 -0.07528291 -0.0016734139 -0.03514522 0.14476074 0.24269651 -0.013370202 -0.034763355 -0.108689904 -0.09286139 0.043391503 0.08447144 -0.0072815362 -0.0058235773 0.13932858 -0.06849416 0.10002766 -0.002939692 0.020674627 -0.1194794 0.017003091 0.026535274 -0.018242951 -0.055449728 -0.16013703 -0.13572016 -0.117462 0.020955836 -0.11654979 0.03950912 -0.032761082 0.0057476787 -0.08144038 0.06796961 -0.11033519 -0.038079314 -0.12422972 0.07632893 -0.036127564 0.044600867 0.13411191 -0.13558897 0.11681165 -0.044925872 -0.21221378 -0.084483124 -0.013234086 -0.038156305 0.14391173 0.04470507 -0.115770526 0.07790808 -0.010185569 0.101500325 0.062408395 -0.20914055 -0.055170286
lazy 0.052400403 0.07645883 0.015466074 0.0905231 -0.106209904 0.0621037 -0.08962809 0.19944882 -0.24534759 -0.020789022 -0.30092925 0.057171524 0.037206687 0.09026071 -0.08255655 -0.16545562 -0.018170835 -0.17529796 -0.11650409 -0.13105537 -0.17980617 0.14417645 0.15876174 0.21310158 0.19658059 0.057060577 -0.24997012 -0.017180076 -0.18521613 -0.08153068 -0.10613537 0.012682849 -0.009570684 -0.079372324 0.0056687254 -0.13535698 0.09782209 -0.23157226 -0.020103507 0.14682548 0.046611775 -0.017804718 0.3520198 -0.09546685 -0.067699924 -0.00073114317 -0.050027862 0.1587491 0.26112318 -0.017864535 -0.043291047 -0.11708831 -0.08308414 0.043167133 0.08390141 6.823271e-05 0.010390435 0.15440962 -0.0828266 0.11066198 -0.016056325 0.02844911 -0.13043725 0.023936167 0.042662933 -0.0251792 -0.05721369 -0.1686128 -0.13952988 -0.12250972 0.008146065 -0.1315127 0.050116833 -0.03887605 0.017222108 -0.07743147 0.09197917 -0.113553226 -0.022740122 -0.13302775 0.07503008 -0.041533194 0.05097876 0.14519632 -0.15303561 0.11745552 -0.056183986 -0.23873673 -0.080387816 -0.012812772 -0.031021224 0.14870834 0.05779491 -0.123732045 0.06646748 -0.008885395 0.108975746 0.07327522 -0.22183631 -0.051575966
over 0.069455504 0.06245994 0.016872924 0.08916595 -0.103014454 0.059745826 -0.11271665 0.1955044 -0.2528102 -0.027482966 -0.31439745 0.06659123 0.03153776 0.104511045 -0.070078455 -0.16234143 -0.017882068 -0.18123502 -0.12459115 -0.123815306 -0.17101493 0.13689473 0.15343507 0.20854063 0.19841744 0.060542267 -0.25838062 -0.01780941 -0.19909006 -0.08359466 -0.10620487 0.019676205 -0.00061172777 -0.08377388 -0.0044156318 -0.1291121 0.109235175 -0.24024451 -0.02991066 0.15506995 0.042438094 0.00024102381 0.35621676 -0.108221404 -0.06787165 0.0016846136 -0.054485105 0.15116121 0.26677904 -0.0207558 -0.034354232 -0.13160565 -0.09525536 0.03669066 0.09818698 0.00094004994 0.0026166667 0.16054647 -0.092734426 0.1315628 -0.017919667 0.015482482 -0.14202362 0.03734733 0.040042244 -0.0076330067 -0.047882672 -0.16872194 -0.14344394 -0.12861168 0.01675033 -0.12892474 0.06770971 -0.039955188 0.026158646 -0.08110828 0.08980466 -0.11657942 -0.04029047 -0.14361075 0.09335426 -0.046445627 0.04498374 0.14947619 -0.16345151 0.14031528 -0.047289044 -0.24897964 -0.09295533 -0.009581251 -0.021916773 0.16025044 0.061037123 -0.14364253 0.08126765 -0.018286018 0.09455144 0.07559624 -0.22635107 -0.04857845
jumps 0.07026403 0.06490483 0.018051067 0.10734117 -0.11500056 0.073207974 -0.104801856 0.21437542 -0.2658428 -0.019555725 -0.3146547 0.077609286 0.028628396 0.10603872 -0.08564776 -0.17354165 -0.01056792 -0.19134283 -0.117340736 -0.14234929 -0.18064529 0.14982463 0.17747165 0.21236217 0.2140939 0.061063565 -0.27652544 -0.03012835 -0.19877116 -0.088013224 -0.11347353 0.017845439 -0.00436431 -0.0878257 -0.010087828 -0.13226913 0.11939716 -0.24996585 -0.037535053 0.17017753 0.050592456 0.00010850331 0.37059546 -0.105345085 -0.08473529 -0.0013084721 -0.05437813 0.1626512 0.27831835 -0.027871454 -0.04346115 -0.13395706 -0.09688728 0.04038462 0.106715225 -0.00038798666 0.007592168 0.17616701 -0.092280634 0.13337438 -0.0023475334 0.023061382 -0.14662309 0.03298213 0.05031211 -0.0057307854 -0.054867808 -0.18341808 -0.14497346 -0.13720858 0.008745117 -0.13780048 0.0683869 -0.04436525 0.014984128 -0.09620997 0.09100271 -0.13017008 -0.031151932 -0.1410632 0.08486017 -0.04784392 0.053962816 0.14437757 -0.17388843 0.124458596 -0.0457658 -0.25198266 -0.10041511 -0.0071679275 -0.03876008 0.15375552 0.044573374 -0.13698807 0.08323857 -0.00651467 0.1053085 0.06774006 -0.22754864 -0.046207186
fox 0.052255787 0.077898055 0.022968639 0.1009792 -0.10914119 0.06048822 -0.11303808 0.19161358 -0.259543 -0.018102724 -0.31377074 0.07623682 0.025257096 0.113573164 -0.08713265 -0.15695153 -0.028325291 -0.19935358 -0.12911354 -0.124780476 -0.18822914 0.14325263 0.16254096 0.22296159 0.20528771 0.048068505 -0.27524287 -0.025004638 -0.19052206 -0.07662475 -0.12220085 0.030243559 -0.013089489 -0.086935975 -0.0043128435 -0.13882202 0.11323115 -0.2412506 -0.020360906 0.17053619 0.060123578 -0.010050724 0.36400303 -0.10112881 -0.07177969 -0.004709512 -0.04665456 0.15970239 0.27283174 -0.020216785 -0.03673587 -0.13310619 -0.08991727 0.054779056 0.09625381 0.001924809 -0.005438592 0.17250256 -0.09434884 0.12496482 -0.011855577 0.018689899 -0.14136986 0.035378184 0.03249871 -0.008379464 -0.043581143 -0.17344663 -0.14661093 -0.12269051 0.008116555 -0.1303406 0.050884727 -0.036380794 0.0110196285 -0.086303286 0.09651902 -0.122562766 -0.030646523 -0.14192885 0.08291994 -0.03841707 0.059546493 0.13655278 -0.15130176 0.14087288 -0.051940475 -0.2415075 -0.092875615 -0.022420269 -0.029679153 0.16268583 0.048095167 -0.13334858 0.08462554 -0.0049917195 0.10373597 0.068732366 -0.23398758 -0.044826835
brown 0.0666851 0.06468182 0.024881259 0.09390919 -0.10540982 0.05651478 -0.091975875 0.18829788 -0.21942261 -0.02040573 -0.30007893 0.064081 0.032936353 0.09571845 -0.07605264 -0.1475908 -0.015049387 -0.16852625 -0.11044576 -0.1236987 -0.16809832 0.14095747 0.15138222 0.20290448 0.1843443 0.06485749 -0.25437063 -0.009052289 -0.18035296 -0.06820463 -0.09507535 0.02696178 0.006993067 -0.08098386 0.006095784 -0.1303623 0.09500397 -0.21586864 -0.019175293 0.15114327 0.050493225 -0.0073206513 0.3352844 -0.083025254 -0.06496558 -0.0137792425 -0.03958561 0.14662786 0.2602844 -0.018086065 -0.026870765 -0.12254979 -0.08727981 0.036248088 0.097767785 -0.013753979 -0.0002349259 0.15599857 -0.071906686 0.11336545 -0.00771932 0.009627284 -0.115484275 0.016346028 0.028976478 -0.01665934 -0.05917211 -0.16582744 -0.13231765 -0.11157493 0.010696552 -0.12054407 0.05435571 -0.04365293 0.019730145 -0.08154335 0.08976539 -0.11378001 -0.03605793 -0.133639 0.07683152 -0.028536083 0.049665753 0.13784154 -0.14615501 0.12810224 -0.048628412 -0.22920235 -0.08873076 -0.015896274 -0.024790157 0.14035152 0.048906907 -0.12700228 0.07950915 -0.0004664166 0.093462974 0.058420647 -0.21793288 -0.041820038
quick 0.05332089 0.07165036 0.016527481 0.08854819 -0.10280012 0.05975433 -0.098625384 0.17793338 -0.22450674 -0.027724706 -0.28610465 0.06799016 0.03458612 0.09207973 -0.068959184 -0.1363649 -0.016719777 -0.16358817 -0.106279254 -0.1132639 -0.1590429 0.13026044 0.1456315 0.18851946 0.17458497 0.059221957 -0.22933613 -0.024653148 -0.17561236 -0.062445924 -0.10307859 0.026135147 0.0032912756 -0.07071254 -0.0107677635 -0.118251905 0.101095624 -0.20097575 -0.029697763 0.13630694 0.040822085 -0.0016133517 0.32828656 -0.09508866 -0.07431594 -0.008553393 -0.03218661 0.13977854 0.23702742 -0.021946203 -0.033217076 -0.11889869 -0.09354679 0.04864829 0.08280224 -0.011813594 0.006556571 0.14869753 -0.08512888 0.10122559 -0.015851595 0.023688009 -0.1174588 0.03304846 0.03930416 -0.015397908 -0.043852646 -0.1476709 -0.13053377 -0.101948746 0.02201165 -0.11333841 0.060154546 -0.037893757 0.0072315903 -0.08078698 0.08392879 -0.09696779 -0.032065306 -0.12733586 0.07558409 -0.02862086 0.032751296 0.12599261 -0.14667608 0.122272216 -0.04758252 -0.22173582 -0.08354545 -0.022282377 -0.02689105 0.1454638 0.048091743 -0.1129957 0.07377147 -0.002282391 0.08941917 0.07149291 -0.20688617 -0.047230296
words 0.06183063 0.05087298 0.0019549415 0.0786198 -0.10810136 0.075924404 -0.0754815 0.170808 -0.22488584 -0.02506741 -0.27678892 0.03839849 0.023799017 0.084746085 -0.07921098 -0.15685815 -0.009821783 -0.16858901 -0.10476129 -0.118571125 -0.16605815 0.13421631 0.14104876 0.18387686 0.19993779 0.06270035 -0.26313278 -0.009931661 -0.15913254 -0.07473547 -0.09942031 0.025527665 -0.004521825 -0.090352416 -0.010374498 -0.13147925 0.1112597 -0.2051008 -0.029543769 0.15613219 0.0470709 -0.0051265205 0.3221171 -0.08894183 -0.0740415 -0.008469019 -0.04787817 0.15341341 0.24720336 -0.004022285 -0.042144064 -0.11453465 -0.08588226 0.05515668 0.081071615 -0.009341993 0.015679266 0.14032595 -0.09191994 0.11021755 -0.008484611 0.010280147 -0.1175553 0.04566204 0.04313315 -0.01200248 -0.02906208 -0.15820062 -0.13629995 -0.111071415 0.008965776 -0.14117137 0.04708729 -0.025509696 0.0025017604 -0.091514625 0.0778264 -0.080986604 -0.025196368 -0.12593324 0.0828897 -0.05010467 0.050240614 0.119558066 -0.15409148 0.11859759 -0.040205754 -0.21795215 -0.07906493 -0.015501006 -0.02093952 0.13934621 0.03998174 -0.13606103 0.057636812 -0.018327102 0.10335752 0.049759276 -0.20999858 -0.048417218
between 0.068693124 0.05662937 0.017150953 0.087885745 -0.097563885 0.07886384 -0.09248103 0.18734851 -0.23843597 -0.042114228 -0.3002641 0.042635433 0.025806133 0.09397135 -0.07226731 -0.16741145 -0.008556318 -0.16775635 -0.107767686 -0.13417888 -0.18538149 0.13833903 0.16637056 0.21275425 0.21748558 0.07515791 -0.282431 -0.015440586 -0.18487047 -0.08934242 -0.11638431 0.021215912 -0.008866594 -0.10264867 -0.011397662 -0.14433974 0.12523769 -0.22326438 -0.034808867 0.16345908 0.059245463 -0.012452809 0.3671507 -0.090182245 -0.08236811 -0.012406348 -0.053335197 0.15655561 0.28160307 -0.0010217845 -0.03763703 -0.11816709 -0.10244238 0.04766583 0.10489969 -0.013706966 0.004491785 0.14464281 -0.085179575 0.11850735 -0.011663205 0.02385853 -0.14616627 0.032827448 0.057800747 -0.016495872 -0.03227428 -0.17265572 -0.15598351 -0.13110144 0.019896058 -0.15264662 0.05081475 -0.038307797 0.0084107835 -0.08504676 0.092696935 -0.09079886 -0.031492736 -0.14218101 0.08965579 -0.060623318 0.04456963 0.14197665 -0.15738256 0.11428392 -0.0411386 -0.2308615 -0.09162788 -0.0017020906 -0.015102565 0.14436522 0.04387197 -0.14909653 0.07064759 -0.025563976 0.11833818 0.048877522 -0.23846638 -0.06349701
relationships 0.07155809 0.071483746 -0.0008192519 0.093642905 -0.113919914 0.08965986 -0.08813292 0.20637223 -0.25623065 -0.05022755 -0.3332766 0.045886647 0.030940397 0.10212914 -0.09086149 -0.16986069 -0.0056156227 -0.18735301 -0.10596918 -0.124886595 -0.18459143 0.1585913 0.15764205 0.2204567 0.23906481 0.081846 -0.28951222 -0.014240503 -0.18311957 -0.08161804 -0.1082759 0.032241654 -0.0066411016 -0.097050525 -0.008966056 -0.13580807 0.12775299 -0.22156215 -0.02708786 0.16920358 0.047270715 -0.0062484564 0.3797014 -0.09623134 -0.08793465 -0.0009888079 -0.054062482 0.16672985 0.2913661 -0.00010534728 -0.03872441 -0.12507634 -0.09753752 0.064179674 0.10229744 -0.021049779 0.0097681815 0.16190308 -0.10662468 0.14015765 -0.0018742348 0.029104516 -0.14786215 0.050930593 0.04845499 -0.014835067 -0.036113024 -0.17867902 -0.14685617 -0.13813165 0.018969275 -0.14226101 0.045450058 -0.042614587 0.01176467 -0.09385726 0.10385179 -0.09259875 -0.023284711 -0.14752898 0.094514646 -0.059623513 0.051632136 0.14075221 -0.1777799 0.13661352 -0.043955084 -0.242579 -0.100280926 -0.017262796 -0.036339767 0.15888458 0.04459923 -0.15807725 0.08054929 -0.009834875 0.13023286 0.057399575 -0.23905396 -0.071800694
semantic 0.07259059 0.053427022 0.013873692 0.09594635 -0.104618 0.083360694 -0.10173918 0.20260403 -0.24728774 -0.039339744 -0.3174115 0.04869012 0.026241068 0.09843553 -0.08680071 -0.17467819 -0.02228559 -0.1707296 -0.1168375 -0.13540314 -0.19095458 0.15828194 0.16064838 0.20637543 0.22056699 0.05941614 -0.28745875 -0.024780711 -0.18050487 -0.09428457 -0.11429582 0.029159768 0.0018560797 -0.098264866 -0.014252578 -0.14332037 0.112129815 -0.2222784 -0.032452013 0.16891867 0.054844327 0.000280942 0.3649919 -0.08534391 -0.091417186 -0.0049968157 -0.041079525 0.16989833 0.2780289 -0.0012021665 -0.04775603 -0.12918092 -0.102782175 0.05652606 0.10060427 -0.023115225 0.015520677 0.15852512 -0.1027765 0.13968496 0.0008493498 0.010993708 -0.13801204 0.048000667 0.043925457 -0.0069745 -0.039791424 -0.18164608 -0.1546761 -0.12665688 0.019025547 -0.13940506 0.043996345 -0.025755914 0.0120495455 -0.10375522 0.10115079 -0.09854825 -0.027504923 -0.13780254 0.078666665 -0.05692525 0.055313114 0.13985537 -0.1741524 0.114933066 -0.041558553 -0.24428624 -0.096370734 -0.005671152 -0.03402893 0.15349646 0.05099181 -0.14462101 0.069673404 -0.011810805 0.124737136 0.058784198 -0.2437126 -0.06683343
capture 0.057076663 0.050290868 0.0027242932 0.08899199 -0.11672823 0.07954407 -0.0934188 0.18722187 -0.24993658 -0.047993112 -0.318243 0.04473087 0.025023934 0.104245 -0.07434093 -0.16357355 -0.009625315 -0.16799092 -0.11401564 -0.118337594 -0.17079557 0.14592545 0.1647098 0.19866121 0.22664237 0.06753241 -0.28423268 -0.027676469 -0.17901674 -0.08661372 -0.11502232 0.02142997 0.0053564184 -0.09827422 -0.018229725 -0.14096703 0.107796445 -0.21654674 -0.021327205 0.16958697 0.053849135 -0.0034696318 0.35864565 -0.08988565 -0.09474515 -0.008410197 -0.04288782 0.15176234 0.27495375 -0.0031806417 -0.04632596 -0.12647249 -0.105804056 0.04791114 0.08847478 -0.018634032 0.0153499 0.15917599 -0.090980545 0.12977648 -0.0002228245 0.018954176 -0.13722268 0.04202048 0.053724065 -0.018280845 -0.035446484 -0.17258695 -0.15410307 -0.12917224 0.007021014 -0.14684314 0.05385745 -0.030809868 0.022253674 -0.103793874 0.095695615 -0.087758124 -0.030104363 -0.14405341 0.084808215 -0.045860704 0.05769718 0.14355151 -0.16154093 0.1261817 -0.05595287 -0.23005673 -0.09534719 0.0026093142 -0.018521007 0.1478748 0.046463095 -0.14012231 0.07148849 -0.014167697 0.11962778 0.054718956 -0.2383463 -0.06588914
embeddings 0.06162641 0.057181686 0.007665943 0.084594056 -0.09418683 0.07652962 -0.082353204 0.1843974 -0.23637144 -0.03380656 -0.30193555 0.043663323 0.022524472 0.101978295 -0.08510057 -0.1615723 -0.009284359 -0.16502638 -0.106809765 -0.13037106 -0.18411082 0.13836062 0.15897842 0.18753396 0.218217 0.06777896 -0.27831003 -0.02110881 -0.18122081 -0.07140342 -0.10594979 0.018999765 -0.008750773 -0.09122237 -0.017864097 -0.13723356 0.10507927 -0.21023965 -0.023637768 0.15488666 0.04264512 -0.01128708 0.35321411 -0.09540617 -0.08980313 -0.016555825 -0.03703125 0.1461709 0.26437446 0.0029705565 -0.03864 -0.12369362 -0.10234615 0.039249234 0.084218636 -0.003457057 0.00086305424 0.13446537 -0.08267546 0.12136451 -0.0055731665 0.023130141 -0.12946445 0.047407463 0.045298833 -0.010695185 -0.027802445 -0.16657162 -0.1476979 -0.109703556 0.007892132 -0.14932945 0.049597383 -0.0230035 0.0023150796 -0.08447561 0.09482478 -0.08141453 -0.028759288 -0.13822196 0.08436026 -0.056589186 0.055551555 0.13834217 -0.15492238 0.11781241 -0.039881334 -0.22255671 -0.0755593 0.0014666198 -0.015712194 0.14397088 0.051899895 -0.14371198 0.05596854 -0.018174501 0.12207231 0.049723346 -0.22060691 -0.06467616
word 0.055930454 0.04838191 0.011720306 0.09244527 -0.09230829 0.080762476 -0.09102123 0.17606631 -0.23002683 -0.037591614 -0.27892807 0.051473398 0.015343049 0.09858291 -0.07406852 -0.14181313 -0.010581878 -0.16024883 -0.09408521 -0.10527259 -0.16891399 0.13055596 0.13334823 0.18591067 0.20280693 0.06663212 -0.25507057 -0.01972628 -0.16571599 -0.07827352 -0.1075895 0.016784206 -0.0054766336 -0.08763715 0.0015332785 -0.12197022 0.10245553 -0.19653256 -0.019066844 0.14467803 0.04617615 -0.014736752 0.3329876 -0.07749104 -0.08445682 -0.0111593185 -0.044378858 0.15429738 0.23707756 -0.0138524985 -0.041955773 -0.11284115 -0.0960851 0.047691673 0.09201983 -0.0062742345 -0.0004959417 0.1283634 -0.09259715 0.1239941 0.0011100658 0.018562948 -0.117445596 0.037370082 0.037468582 -0.014037769 -0.030171625 -0.1646865 -0.13236146 -0.1131161 0.005901346 -0.13437472 0.04309233 -0.036203057 0.0065652863 -0.08228765 0.07956959 -0.08702978 -0.019634023 -0.13402729 0.07577701 -0.051985327 0.05255968 0.12100506 -0.13901305 0.10651894 -0.045977335 -0.2079578 -0.07066671 -0.01277624 -0.02949746 0.14064652 0.040353764 -0.13698113 0.06754383 -0.024582643 0.114400394 0.062470403 -0.19953196 -0.059387717
layers 0.046192575 0.058358133 0.0038486694 0.09861543 -0.09065489 0.082561985 -0.081020124 0.17426375 -0.21468437 -0.032054197 -0.2729453 0.054918513 0.01421329 0.100840464 -0.07942477 -0.13297874 -0.009600154 -0.1661368 -0.102151446 -0.10625283 -0.15651731 0.11303614 0.14120492 0.17041917 0.17264281 0.060645975 -0.21579546 -0.020653492 -0.15699573 -0.07628784 -0.10089627 0.009496765 0.0022346317 -0.08094769 0.009021484 -0.12155744 0.09360158 -0.19768247 -0.032941494 0.12116685 0.055062935 0.004170535 0.3069657 -0.08665963 -0.05832868 -0.00023664 -0.026906814 0.13100009 0.23436654 -0.019409016 -0.034673456 -0.11882658 -0.08250142 0.03675384 0.08602488 -0.020215128 0.008453966 0.13030009 -0.062543005 0.11497719 -0.0060276687 0.009695144 -0.10872268 0.02314809 0.027517535 -0.017261395 -0.05598156 -0.14974219 -0.13196622 -0.10778471 0.011427591 -0.13183129 0.042316 -0.044965606 0.0064360034 -0.07973254 0.060542297 -0.08027326 -0.031022932 -0.10345356 0.08582567 -0.022378739 0.035289668 0.12799153 -0.12479085 0.09150127 -0.036745444 -0.20123117 -0.08036756 -0.016083533 -0.03217645 0.105917946 0.049721267 -0.13505541 0.0617938 -0.015408216 0.10236331 0.057862375 -0.1993425 -0.05822919
multiple 0.06339549 0.07118863 0.0012671297 0.095015205 -0.0939391 0.08898837 -0.09636642 0.1813764 -0.22969756 -0.025535703 -0.28956926 0.04905483 0.011917878 0.10073238 -0.07474906 -0.1634528 -0.015514884 -0.18152557 -0.10842044 -0.1120134 -0.1737053 0.12225131 0.16552566 0.18730992 0.19338208 0.07264011 -0.24741295 -0.02863339 -0.18425907 -0.07867798 -0.11385445 0.019629197 0.01012243 -0.09535923 0.014545605 -0.12731932 0.12185385 -0.22551839 -0.030029263 0.14616147 0.06735125 -0.011303371 0.3458056 -0.0931485 -0.07794374 -0.0045049503 -0.036852524 0.1595293 0.26120993 -0.0037380129 -0.04734718 -0.11342259 -0.10223526 0.054879446 0.094386846 -0.009557223 0.007637228 0.14412595 -0.07550476 0.13320781 -0.008547177 0.020795468 -0.12811807 0.024336534 0.04669161 -0.017456332 -0.06250266 -0.15720057 -0.1258724 -0.12242635 0.009031773 -0.13697754 0.050136846 -0.047801863 0.022376332 -0.08035074 0.07716993 -0.10245732 -0.043670777 -0.1173132 0.09530257 -0.03612969 0.038239602 0.14929518 -0.137253 0.101360135 -0.043946736 -0.20712711 -0.07121442 -0.01316797 -0.029156843 0.120758444 0.05520168 -0.14711505 0.05471317 -0.019819757 0.104288004 0.064709 -0.21899866 -0.05453719
with 0.05304179 0.06948948 0.0016660908 0.09227547 -0.099592075 0.07470214 -0.08602694 0.16758148 -0.20077418 -0.017133333 -0.2658883 0.058874015 0.012770334 0.08672188 -0.07573966 -0.13163726 -0.02045867 -0.15947911 -0.094755396 -0.097468786 -0.15344697 0.12465648 0.14472295 0.18118711 0.18472268 0.049768236 -0.22618118 -0.014154054 -0.17002814 -0.08043918 -0.10461873 0.023469873 0.0074231387 -0.085187286 0.010733642 -0.11002676 0.10628918 -0.18691579 -0.015679386 0.12088794 0.05797904 -0.007762916 0.30148363 -0.076090544 -0.06583117 -0.0017195728 -0.020776246 0.12956917 0.22270511 -0.018968087 -0.030350752 -0.11404713 -0.09275587 0.04866987 0.08066028 -0.010720653 -0.004740631 0.1237186 -0.062225055 0.109899685 -0.010848827 0.016356248 -0.11390802 0.019620653 0.032065164 -0.014686746 -0.057951342 -0.14736761 -0.1225543 -0.104268715 0.02521775 -0.11282889 0.038184315 -0.038137138 0.0040569203 -0.0762637 0.06127555 -0.099746436 -0.027302524 -0.11922455 0.07734804 -0.038635205 0.038764328 0.13452186 -0.126942 0.10618647 -0.044294875 -0.20293348 -0.0775797 -0.016949944 -0.032444365 0.11147967 0.041049596 -0.12348851 0.04609989 -0.011797155 0.09456499 0.06446529 -0.18996799 -0.043740414
uses 0.050664216 0.053641956 0.008270136 0.09023284 -0.091617055 0.072104104 -0.084005535 0.15980935 -0.20285192 -0.013876976 -0.25196478 0.043229237 0.027678708 0.092008576 -0.07891088 -0.13143031 -0.011706498 -0.14520697 -0.091096945 -0.100288406 -0.15173596 0.11021688 0.13833725 0.1786143 0.18255062 0.05963112 -0.21643278 -0.016346749 -0.16252746 -0.065354235 -0.09930777 0.012228483 0.011447123 -0.07643615 0.002834233 -0.102586284 0.106989905 -0.19375156 -0.023073457 0.12557684 0.055979826 0.005282796 0.2964896 -0.070254326 -0.06490909 0.007290195 -0.03344496 0.13028258 0.22323352 0.00026530883 -0.033015113 -0.11569003 -0.09591875 0.045368724 0.08620223 -0.012152567 0.0052139754 0.132856 -0.068621635 0.11716722 -0.00062843616 0.02311631 -0.10092364 0.026123926 0.02545994 -0.01842605 -0.055713125 -0.14001836 -0.12444103 -0.10176567 0.01240352 -0.12736356 0.033754613 -0.038174916 0.004674587 -0.06867694 0.07220232 -0.08446986 -0.035765585 -0.10267173 0.07861448 -0.032835364 0.024041694 0.12512541 -0.11860146 0.086262725 -0.051119328 -0.19252151 -0.068741105 -0.011795441 -0.028294148 0.106887 0.034839023 -0.13144733 0.04588695 -0.010228126 0.10097636 0.056525104 -0.19324894 -0.051577408
